/* Generated by Edge Impulse
 *
 * Permission is hereby granted, free of charge, to any person obtaining a copy
 * of this software and associated documentation files (the "Software"), to deal
 * in the Software without restriction, including without limitation the rights
 * to use, copy, modify, merge, publish, distribute, sublicense, and/or sell
 * copies of the Software, and to permit persons to whom the Software is
 * furnished to do so, subject to the following conditions:
 *
 * The above copyright notice and this permission notice shall be included in
 * all copies or substantial portions of the Software.
 *
 * THE SOFTWARE IS PROVIDED "AS IS", WITHOUT WARRANTY OF ANY KIND, EXPRESS OR
 * IMPLIED, INCLUDING BUT NOT LIMITED TO THE WARRANTIES OF MERCHANTABILITY,
 * FITNESS FOR A PARTICULAR PURPOSE AND NONINFRINGEMENT. IN NO EVENT SHALL THE
 * AUTHORS OR COPYRIGHT HOLDERS BE LIABLE FOR ANY CLAIM, DAMAGES OR OTHER
 * LIABILITY, WHETHER IN AN ACTION OF CONTRACT, TORT OR OTHERWISE, ARISING FROM,
 * OUT OF OR IN CONNECTION WITH THE SOFTWARE OR THE USE OR OTHER DEALINGS IN THE
 * SOFTWARE.
 */
// Generated on: 23.05.2022 12:36:20

#include <stdio.h>
#include <stdlib.h>
#include <vector>
#include "edge-impulse-sdk/tensorflow/lite/c/builtin_op_data.h"
#include "edge-impulse-sdk/tensorflow/lite/c/common.h"
#include "edge-impulse-sdk/tensorflow/lite/micro/micro_mutable_op_resolver.h"
#include "edge-impulse-sdk/porting/ei_classifier_porting.h"

#if EI_CLASSIFIER_PRINT_STATE
#if defined(__cplusplus) && EI_C_LINKAGE == 1
extern "C" {
    extern void ei_printf(const char *format, ...);
}
#else
extern void ei_printf(const char *format, ...);
#endif
#endif

#if defined __GNUC__
#define ALIGN(X) __attribute__((aligned(X)))
#elif defined _MSC_VER
#define ALIGN(X) __declspec(align(X))
#elif defined __TASKING__
#define ALIGN(X) __align(X)
#endif

using namespace tflite;
using namespace tflite::ops;
using namespace tflite::ops::micro;

namespace {

constexpr int kTensorArenaSize = 544;

#if defined(EI_CLASSIFIER_ALLOCATION_STATIC)
uint8_t tensor_arena[kTensorArenaSize] ALIGN(16);
#elif defined(EI_CLASSIFIER_ALLOCATION_STATIC_HIMAX)
#pragma Bss(".tensor_arena")
uint8_t tensor_arena[kTensorArenaSize] ALIGN(16);
#pragma Bss()
#elif defined(EI_CLASSIFIER_ALLOCATION_STATIC_HIMAX_GNU)
uint8_t tensor_arena[kTensorArenaSize] ALIGN(16) __attribute__((section(".tensor_arena")));
#else
#define EI_CLASSIFIER_ALLOCATION_HEAP 1
uint8_t* tensor_arena = NULL;
#endif

static uint8_t* tensor_boundary;
static uint8_t* current_location;

template <int SZ, class T> struct TfArray {
  int sz; T elem[SZ];
};
enum used_operators_e {
  OP_FULLY_CONNECTED, OP_SOFTMAX,  OP_LAST
};
struct TensorInfo_t { // subset of TfLiteTensor used for initialization from constant memory
  TfLiteAllocationType allocation_type;
  TfLiteType type;
  void* data;
  TfLiteIntArray* dims;
  size_t bytes;
  TfLiteQuantization quantization;
};
struct NodeInfo_t { // subset of TfLiteNode used for initialization from constant memory
  struct TfLiteIntArray* inputs;
  struct TfLiteIntArray* outputs;
  void* builtin_data;
  used_operators_e used_op_index;
};

TfLiteContext ctx{};
TfLiteTensor tflTensors[14];
TfLiteEvalTensor tflEvalTensors[14];
TfLiteRegistration registrations[OP_LAST];
TfLiteNode tflNodes[5];

const TfArray<2, int> tensor_dimension0 = { 2, { 1,207 } };
const TfArray<1, float> quant0_scale = { 1, { 0.1253364086151123, } };
const TfArray<1, int> quant0_zero = { 1, { -128 } };
const TfLiteAffineQuantization quant0 = { (TfLiteFloatArray*)&quant0_scale, (TfLiteIntArray*)&quant0_zero, 0 };
const ALIGN(16) int8_t tensor_data1[96*207] = { 
  -44, -11, 61, -80, 6, -53, 63, 51, -68, -24, -40, -17, -6, -43, -54, -12, 50, -10, 24, 27, 12, 71, 52, -6, 12, 54, 32, -7, 22, 19, 23, 7, 29, -8, -59, -49, 12, 57, 32, 67, -51, -14, 71, -6, 59, -30, 67, 29, 59, 22, -31, 50, 18, 35, -57, -2, -43, -24, -42, 51, 35, 38, -63, 35, -13, 67, 26, -56, 43, -56, 55, -58, 11, 39, -20, 15, 25, -57, -2, -33, 25, 16, -72, 24, -29, -23, 49, -2, 0, -24, -50, 45, 42, 37, -3, -30, -67, 49, -9, -16, 22, 10, 17, -4, 64, -55, 14, 8, 38, -5, -40, 20, -10, 23, 35, 57, -32, -54, -43, 68, 29, -16, -27, -41, 14, -58, -59, -42, -6, 37, -37, -1, -22, -24, 14, -5, 25, -2, -60, 60, -62, 61, 60, 7, 19, -31, 3, -38, -71, 1, 27, 43, -32, -53, -19, -21, -25, 44, -46, 53, 20, 4, 6, 49, -12, -32, -64, 56, 59, -3, 28, 38, -55, 1, 21, -66, -56, -56, 59, -73, -53, -11, 6, 69, 27, 41, -29, 16, -48, 11, -11, 59, -32, 16, -15, -52, -73, -52, 21, -52, 18, 60, -19, -53, 63, -50, 49, 
  13, 66, 57, 6, 61, 28, 40, 29, -6, 38, -16, -26, 69, 68, 28, -16, -59, -37, -20, 16, 1, 23, -42, -53, -42, 33, -29, -27, -53, 23, -47, -11, -64, 11, -69, 28, -67, -29, -42, -11, -53, -39, -8, -70, -21, 48, 30, -18, 7, 9, 33, 0, -38, -20, -29, 29, -23, 53, 64, -39, 11, -14, -16, 69, 54, 28, -3, 14, -15, -10, -76, -4, -45, 31, 24, 29, -42, 64, 12, -60, -72, 60, -13, 14, 57, 13, 20, 33, 51, 41, -37, 71, 45, 60, -17, 58, 60, -45, 65, 74, 21, 45, 62, 46, 26, 68, -14, -3, 11, -10, 59, 55, -11, -52, 20, 52, -80, -70, -32, 7, -15, -19, 13, -39, 3, 6, -44, -46, 14, 15, -61, -3, -43, -7, 52, 55, -8, -65, -20, 21, -28, 44, 34, 2, 58, 42, -64, -10, -43, 53, -52, 38, 62, -10, 54, -58, 58, -79, 59, -19, -31, 11, -29, -55, -12, -65, 67, -54, 71, 5, 3, -58, -48, -54, 60, -28, -68, 30, -26, -14, -37, 41, 61, -39, -65, 60, -35, -73, 61, -70, -27, -10, 42, 55, 27, -30, 12, 35, -34, -14, -12, 67, 2, 34, -21, -51, -24, 
  -13, 40, -23, -2, -23, -29, 16, 49, -46, -39, 69, -42, 8, 42, -24, -30, -45, -64, 36, -4, 56, -37, -44, 1, 50, 80, 79, 58, 42, 14, 67, -66, 23, -58, -1, 16, 49, 34, -41, -55, 21, -43, 27, 56, 46, 8, -49, -56, 27, -2, -3, -5, -51, -66, -66, -19, -30, 61, 3, 2, 14, 22, -66, -41, 3, 59, 73, 87, -47, 62, -37, 90, 34, 10, -47, 63, -15, 34, -3, 6, 70, 47, 32, -44, 60, 29, 62, 84, 9, 66, 32, -26, 50, -29, -4, -12, 8, 55, -19, 75, 2, 63, 42, -44, -63, -7, -12, -43, 14, 44, 33, -54, 5, -62, -64, 65, -59, -43, 12, -1, -27, 31, 42, 32, -51, -16, 55, 66, -20, 19, -50, 20, -43, 15, -30, 9, 31, 47, 29, 53, 5, 37, 80, 27, -14, -51, 46, -44, 16, -25, 21, -70, 46, 65, 84, 61, 6, -31, 45, -60, 48, 39, -3, 64, 27, -43, -51, 58, 73, -48, 59, 48, 10, -36, -55, 62, -67, -1, -50, 15, -22, -29, 44, -12, -16, 48, 61, 26, -58, 18, 7, 53, -59, 3, 71, -57, 11, -61, -25, 22, 55, 40, -53, 23, -26, -42, 88, 
  -63, 18, 65, -36, -13, 6, -55, 51, 65, -52, 40, -32, -29, 56, -39, 6, 44, 77, 57, -57, -49, -12, 69, 8, 43, 31, 44, -38, 24, 21, -41, -64, -40, 16, -34, 59, 40, -7, -58, -5, 33, 45, -12, 31, -67, -59, -51, -26, 51, 21, -53, 46, 59, -70, 47, -53, 44, 24, -15, 56, -56, -67, -1, -8, 44, 18, 15, 65, 68, 70, 5, 38, 32, 56, -38, 4, 80, -55, 37, 21, 46, -11, 22, -8, 30, 10, -15, -51, 20, 70, 68, 48, 27, -46, -26, -64, 0, 41, -7, 1, -33, 40, 49, 13, 70, -58, 41, -8, -42, 42, 2, -11, -19, 8, 10, 12, 52, 49, -4, 35, 12, 5, 28, 14, -13, 16, 38, -46, -66, -2, -12, -49, 47, 8, -27, 25, 32, -58, -16, 15, 21, 64, -51, -21, 76, 41, 34, 58, -28, 82, 6, -56, -15, 15, -60, -8, -42, -62, 9, 19, -50, 81, 0, 52, 1, 71, -37, 14, 50, 34, 4, -27, 69, -26, 66, -25, -58, 42, 63, -21, 34, -6, 52, -13, -32, -40, -62, 10, 47, -62, 47, -51, -3, 61, -6, -37, 59, -127, 63, 16, 42, -102, 30, 61, 61, -59, -45, 
  7, 7, 24, 62, 1, -4, -15, 52, -44, 46, 43, 43, -9, 27, 17, -6, 61, 74, -35, -9, -43, -35, 13, -44, -46, -39, -65, -45, 62, -25, -10, 35, -43, -21, -22, 25, 47, 67, 11, -54, -24, 33, 36, 31, 25, 38, -66, 22, -20, 12, 5, 66, -1, -34, -3, 14, 34, -12, -37, 0, -45, 69, 37, -51, -51, -36, -20, 26, 78, -33, 58, -69, 69, 47, 65, 50, 12, 4, 24, -4, -21, -24, -11, -11, -9, -75, -69, -16, 37, -29, 75, 25, -50, -51, 72, -53, -54, 37, 68, 10, 2, -14, -45, 62, -42, 72, -28, 62, 38, 49, 69, -70, 51, 27, -59, -1, -3, -44, 15, -28, 15, 23, -72, 23, -71, 2, 4, -52, -63, -8, -41, 0, 41, 30, -58, -76, 36, 26, -18, -47, -19, -37, 18, 7, -28, 45, 40, -37, -27, 60, -56, -62, 56, 18, -12, 24, 11, 67, -22, -32, -26, -64, -26, 2, 6, 38, 28, 33, -15, 68, 11, 53, -27, 62, 46, 44, -36, -51, -29, 53, 60, 58, 21, -20, 22, -64, -30, 46, 20, -10, -33, -32, 68, 23, 65, -19, 11, 7, -59, -14, -69, 12, -16, 52, 44, 67, 21, 
  78, 74, 10, 9, -49, -47, 2, 16, 36, 42, -13, -33, -21, 61, -41, -27, -61, -63, 47, 29, 33, 65, -14, 72, 14, -38, -62, -40, -21, 21, 50, 29, -30, 33, 22, -67, -26, -54, 43, 0, -44, 3, -12, -51, -8, -11, -32, 51, -52, 43, 68, 32, -59, -4, 44, -25, 68, 40, 50, -10, 41, 10, 27, 19, 66, -25, -36, -18, -23, 96, -7, 22, -25, -25, -69, -30, -75, 61, 25, -62, -24, 37, -43, -18, -5, -62, -27, 57, 35, 30, 34, 55, -6, 63, -30, 62, -57, 60, -42, -7, -19, -16, 30, -70, -26, -15, -51, 28, 28, -30, 56, -27, -72, 69, 39, -30, 29, 67, 53, -62, -7, 71, -42, -43, -48, -17, 8, -10, 23, -22, 18, 12, -43, -2, -20, 55, 43, 70, 108, -68, 19, -59, -65, 53, -42, -32, 28, 36, 55, 27, -39, -93, -82, 0, 0, -62, 25, 33, 40, 62, 44, -65, -29, -73, -12, 61, 4, -25, -19, -30, 46, 34, -4, 53, -58, -34, -50, 51, 23, -34, -24, -29, -32, 61, 0, -11, 26, 0, -50, -57, 41, 22, 61, 26, 17, -45, 38, -49, -59, -6, 2, -26, -64, 0, 8, -65, -83, 
  -8, 16, -14, 3, -3, 19, -42, 3, -56, 69, 37, -43, 28, -16, -16, -14, -20, 37, -21, -14, 46, 16, 33, -70, -29, 46, -30, -51, 31, -29, 60, 15, -5, -61, 34, -57, 42, -4, 13, -58, -56, 57, -34, -58, -22, -58, -55, -62, -32, -30, -65, -5, 57, 43, 43, 25, 41, -70, 68, 56, 20, 4, 55, -45, -7, -26, 26, -62, -20, 1, -37, 17, -1, 48, -6, -20, 4, -74, 9, -42, -10, -76, -23, -75, 60, -43, -28, 28, -51, -65, -33, -16, 44, 1, -48, 0, -72, -23, -18, 25, 50, -51, -48, 13, -33, -18, -4, 51, -31, 71, -64, -31, -42, 1, -56, -35, -38, 59, -18, -25, -7, -49, 10, 17, 28, -64, -13, -54, -60, -16, 17, -57, 4, 66, -21, -43, -69, 54, 77, -33, -65, -57, 5, 38, 24, -29, -14, 9, 68, -19, 26, -65, 72, -49, 48, -42, -36, 77, -42, 43, 18, 68, 54, -38, -41, 33, 20, 60, 32, -6, 29, 37, 20, 45, 6, -17, 15, 34, 32, 25, -12, 14, -1, -49, 39, -72, -20, -42, 58, -12, -17, 23, -58, 54, 16, -15, 37, -75, -55, -67, 22, -6, -45, -24, -66, -5, 14, 
  -22, 20, 67, 72, 53, -16, 12, 35, -3, -54, 13, 79, -61, -65, -64, -44, 6, 49, -54, 41, -86, -55, -53, 52, -19, -1, -62, 51, -15, -36, 12, 13, -38, 36, 68, -16, 72, -43, 21, -54, 25, 32, 0, -55, 23, 71, -43, 17, 27, 3, -72, -47, -22, 40, -38, 56, -45, 65, 62, 8, -29, 67, -68, 37, -39, 19, 14, 98, -48, -16, 1, 86, 11, 11, -66, -29, 18, 36, -62, -31, -32, 8, 24, -2, 71, -31, 49, 57, -8, 90, -24, 34, 42, 16, 75, 21, 62, -35, 27, -61, -35, -63, 2, -57, 65, -38, 49, 64, 59, 13, -3, -47, 25, -47, 24, -23, 0, -32, -25, 13, -1, -39, -43, -26, 3, -59, -17, 34, -32, 2, 0, -31, 65, -11, 80, 99, 105, -40, -1, -5, 25, 22, 79, 45, 57, 18, 50, 76, 49, 58, 102, -16, 27, -15, 32, -30, -11, -66, 67, 90, 67, -41, -17, -2, -17, 47, 34, -4, -25, -8, -13, -40, 3, -60, -55, -12, -8, -63, -12, 57, 38, 66, 55, 24, -33, -59, -52, 16, 34, -76, -55, -26, 50, -30, 31, 4, -19, 50, -30, 26, -2, -21, 32, 35, 88, 88, -32, 
  49, 69, 69, -42, -5, -25, 6, 22, -50, 66, -39, -22, 6, -8, 73, 42, 29, 15, 10, 42, -14, -16, 21, 46, 58, -29, 57, 57, 67, -15, 33, -43, 62, -2, 21, -46, 29, 25, 32, 30, -14, 41, 54, -12, 60, 14, 32, -4, -32, 3, 69, -3, -58, -16, 21, 45, -65, 41, -9, 58, -20, -48, 19, 38, 70, -50, -10, 46, -2, 11, -74, 17, -32, -38, -61, -69, 34, -80, -53, 37, 18, -25, 15, 53, -53, 16, 42, 34, 14, 56, 45, -70, 35, -57, -22, -1, -65, 11, -14, 9, -38, 36, 10, -31, -55, -3, -23, 37, -72, 11, -2, -41, -15, 22, 15, 56, -19, -70, -13, 50, 39, 33, 54, 62, 30, 34, 32, 57, 41, 14, -65, -37, -63, -16, 43, -31, -54, 59, 76, 73, -10, 45, -65, -58, -83, -19, 36, 64, -18, 25, 31, 63, 34, -21, -77, 11, 49, 31, 65, 65, 47, -6, 11, 70, 61, 32, -29, -17, 11, -44, -1, -23, -29, -50, -2, -36, 6, -4, 40, -2, 59, 48, 64, -8, 55, -61, -2, 41, -49, -61, -40, -51, -61, -21, 47, -74, 67, 1, 62, 39, -39, -2, -4, -20, -10, 61, 23, 
  21, 29, 40, -14, 48, 56, 23, -63, -56, -19, -20, -32, -13, 49, 49, -35, 74, -58, 67, 47, 9, -2, -53, 52, -42, 22, 35, 7, 64, -42, -25, -35, -20, -28, 37, -18, 42, -48, 40, 59, -40, 66, -68, 6, -22, -43, 34, 23, -14, 46, -4, -11, -49, 37, -19, 2, -44, -8, 53, -46, 1, -32, 0, -35, -51, -53, -6, 64, 2, 77, 68, 13, -2, 45, 21, -47, 65, 9, -88, 65, 37, -14, 41, 63, -22, -15, 6, -22, -64, -26, -9, -14, 43, 35, 41, 24, -51, -42, -19, -14, 11, -60, -59, -36, 45, -13, 68, 57, -9, -49, -20, 14, -28, 9, 31, -30, 15, 27, 55, -2, -16, 0, 25, 39, 24, 12, -19, 18, -20, -53, -86, 40, -74, 19, -6, 27, -1, 29, 81, 75, -66, -59, -37, 6, 72, 42, 30, -4, -66, 8, 58, 10, -68, -77, 18, -51, 4, -3, 22, 47, -50, -12, -21, -8, -31, -44, -4, 3, 60, 3, 32, -6, 5, -38, 55, 44, -40, 28, -8, 24, 12, 24, 1, 1, 46, -5, 67, -31, -4, 27, -44, 22, -19, -17, -23, 53, -24, -45, -40, -43, 35, -3, 50, -32, 52, 58, 33, 
  -58, 31, -20, -30, -54, -32, -19, -43, 11, -82, -52, -50, -5, 57, 43, -66, 5, -60, -8, 61, 47, -19, -57, -34, -46, 17, 2, 24, -62, -40, -25, 18, -49, -52, 69, 16, -4, -2, 32, -48, -66, 47, 70, 11, 52, -7, 55, -66, -17, -5, -5, 42, 20, -40, 44, 21, 16, 43, 58, -28, 22, 72, 49, -47, 50, -79, 24, 7, -54, 77, 87, -23, 68, 47, 1, 85, 9, 63, 17, 75, -11, 47, 46, 58, -34, 66, -46, 80, 25, 15, 84, 60, 53, -24, -56, 33, 78, 10, 60, 23, 27, 65, 11, 30, 45, 79, -56, 11, 61, 22, -52, 25, -36, -15, 48, 15, 44, -14, 54, 72, -52, 47, -42, -64, 32, -29, 36, -34, 68, -22, 36, 51, 13, 44, -7, 12, 46, -73, -15, 16, -6, -74, 35, 37, 105, 29, -29, 43, 72, 31, 54, 68, 29, 25, -3, -15, 15, -50, 47, 1, -43, -45, 82, 43, -6, -50, -5, -62, 58, 9, 38, 46, 14, -27, 69, -56, -5, 3, 50, -13, 68, 7, -11, 20, 30, 37, -18, 11, -12, -31, -3, 50, -1, 15, 40, -44, -18, -22, -73, -56, 0, 69, -37, 89, 60, 69, 35, 
  55, 74, -3, 69, 45, 50, 46, -14, 37, -15, -14, 61, 35, 12, -78, -6, -6, -45, -16, -9, -9, -4, -8, -49, -35, 41, 60, -40, 40, -35, -19, 47, 67, 67, 40, 49, -46, 60, -3, -1, 62, -32, 65, -28, -68, -25, 44, -18, -32, 25, 27, -60, -32, 39, 64, 45, -15, 8, 69, -64, 58, 25, -54, -53, -21, 44, 16, -31, 25, 23, -8, -49, 30, 57, -28, -10, -33, 23, -3, 40, 75, 52, 20, 27, -16, -7, 64, -50, 20, 41, -4, 77, 69, 50, 24, -62, -46, 80, 26, 45, 9, 42, -30, -22, -58, 53, 41, -63, 39, 75, -62, -11, 51, 20, -1, 33, -46, 73, 60, 23, -24, 36, 39, -58, -9, -30, -68, 59, 60, -52, -57, -17, -21, 22, 54, 82, 100, 50, -11, 50, -27, 30, 23, -32, 67, -61, 22, -29, -19, 14, 83, -67, 82, 43, -34, -29, -15, 62, 3, 31, -33, -25, 43, 6, -21, -50, 33, -15, -12, -35, 14, -65, -42, -31, -9, -33, -36, -13, 7, 30, -59, -7, -40, 42, -18, 33, -20, 26, -74, -5, -42, -34, 39, 23, 10, 47, -8, -65, -49, -27, 15, 6, 44, -20, -51, 75, -8, 
  35, 33, 32, 68, 9, -51, 13, -25, 6, -44, 1, -50, 39, -11, 35, 27, 51, 47, 36, 63, -66, 46, -53, -8, -40, -24, -48, -38, -21, 62, 30, -35, 44, 60, -61, 22, 32, 9, -55, -11, 63, -51, 33, -61, -61, 36, 63, -6, -14, 45, -66, -33, 40, 4, -52, 34, 1, -44, -33, -66, 30, -1, -17, -36, -38, 77, -34, 62, 46, 18, -59, 52, -5, 5, 26, -67, 26, 48, 85, 48, 18, -5, 41, 11, 28, 6, 18, -63, -20, 29, 54, 55, 70, 17, -31, 46, 33, 26, 18, -29, 3, 58, -30, 0, -70, -26, -64, 46, -45, 5, 34, -12, -25, -65, 34, -19, 75, 38, -10, -44, -53, 17, -2, -1, -15, -35, 21, -5, -4, 15, -75, -43, 9, 41, -19, -68, 38, 74, 19, -72, -37, 0, -36, 30, 26, 39, -25, -29, 35, 64, 45, 79, -68, 20, -16, -42, 47, -1, -14, -40, 28, -64, -31, 78, -58, -47, -40, 19, -22, 33, 39, -16, 18, 32, 76, -16, 40, -16, -14, 69, -54, 51, -57, -66, 56, 31, 17, 11, 46, -9, 27, 21, 17, 63, 17, -56, 32, 42, -28, 14, 15, -4, -65, -86, 1, 35, 25, 
  20, 9, -22, -14, 72, -70, 44, -21, -32, 61, 0, 73, 51, 47, -28, 5, 49, 23, 57, -49, 49, 16, 4, 24, 43, -41, 5, -19, 53, -10, 28, -19, -56, -43, -64, 7, -49, -71, 39, -34, 58, -23, 23, 19, 37, -15, -70, -26, -11, 1, -2, -12, -62, -69, 72, -11, 24, 11, -7, 4, -39, -6, 61, 43, 55, 47, 21, -45, 18, -32, 83, 17, 45, -6, 49, 75, -67, 14, -25, 16, -59, 21, 54, -31, 76, -6, -26, 63, -70, 47, 48, 40, 28, -60, 74, 30, -37, -48, 53, -68, -25, 19, 45, -72, 68, 13, 66, -7, 42, -69, 71, 34, 8, -50, 71, -39, 53, 13, -69, -8, -19, 47, -24, 64, -15, 13, 62, 13, -58, -5, -4, 58, -28, -68, 17, -20, -41, 20, -2, -52, 64, 10, 3, 46, 21, 47, -4, -29, 34, 51, 12, -35, 49, -12, 30, -60, -63, -52, 21, 30, -42, -38, -3, -57, 15, -15, -57, 55, -26, 50, -65, -38, -45, -24, 56, 57, 32, -48, 50, 0, 53, -31, -42, -23, -38, -29, 70, 74, 57, 30, 35, -53, 44, 62, -19, -10, -16, 15, -56, -46, 51, 6, 3, -37, 60, -45, -7, 
  -11, -17, -51, -58, 6, 48, -47, -21, -35, -16, 68, 8, 21, 35, 78, 67, -45, -15, 55, 70, -67, -23, 32, 27, 34, -22, 35, -32, -10, 67, 12, 38, 20, 20, 29, 25, 14, -48, -16, 46, -21, 43, 44, -12, 65, 32, -15, -66, -54, 50, 72, 17, -14, -37, -24, -53, 22, -36, -2, 11, -38, -19, -8, 12, 4, -56, -20, -32, -43, -16, 18, -5, -44, 0, 61, -79, 31, -61, 75, -21, -55, -88, 60, 46, 63, -63, -28, -22, -24, -28, -47, -88, 36, -3, 68, -38, -72, -20, -18, 16, 23, -18, 51, -44, -20, -32, -70, -67, 46, 17, -12, -62, -4, -4, 42, -71, 32, 8, -62, -19, 2, -61, 34, -32, 64, 30, -62, 54, 26, 13, -67, -75, 37, 54, -77, 25, -56, 51, 87, 57, 26, 78, -55, 28, 33, 10, 57, -1, -61, 66, 6, -23, -4, 7, 23, 39, 49, 63, -41, -75, 1, -13, 29, 73, 50, -33, 69, -21, 1, 41, 21, 5, -48, -4, -15, -45, -67, 12, 8, -57, 3, 41, 18, 7, 64, 54, 31, -63, -27, 7, 39, -37, 41, 64, -60, 72, -44, 61, 59, -50, 14, -4, 31, -21, -33, 33, -99, 
  -32, 72, 40, -39, -17, -39, 36, 7, 1, 27, -27, 69, -27, 42, 47, 21, 27, -12, -40, -1, -67, -23, -10, -47, -74, 23, 18, -8, -26, -8, -24, -57, -28, -66, 10, -63, -37, -44, 55, -9, 71, 22, 60, 72, -65, 46, -71, -67, 27, 51, 14, 10, 42, -12, 49, 21, -24, 21, -13, -3, 25, 9, 42, 18, -65, -60, -59, -53, -37, -66, -8, 31, 43, -36, -5, 4, -13, -12, -59, 31, 48, 65, 72, -77, -29, -3, 50, -22, -39, -38, -76, -45, 20, 54, 58, -60, -55, 64, -27, 64, -73, -22, 67, -25, 48, 37, -24, 21, -34, 38, 4, 41, 51, 67, -65, -18, -29, -25, 25, -33, -55, -53, 5, 70, 7, 39, -63, -4, -49, -39, -45, -47, -47, -38, -32, -68, 5, -46, -50, 47, -21, -5, -29, -52, 31, -23, 41, -68, 60, 59, -82, -53, -77, 66, -11, 1, -14, -45, -15, -22, -68, -61, 9, -15, 66, 50, -54, -41, -25, -2, -36, -4, 17, -53, -27, -12, 67, 0, -71, 12, 58, -59, -52, 10, -71, -29, -33, 65, 15, 36, -66, -49, 56, 38, 42, -70, -14, 20, -49, 6, -39, 36, -26, 11, 20, 13, -75, 
  -19, -28, -73, -3, 67, 44, -31, 49, -34, -48, 82, -52, 51, -37, 5, 53, 26, 51, -30, 13, 58, 64, 7, 43, 33, 16, 43, -33, -56, 46, 63, 62, -32, -7, -46, 18, -51, 16, -18, -40, -38, 66, 21, 11, 7, -59, 13, -37, -67, 43, 28, -31, -23, 9, 32, 29, -31, 0, -56, -52, -12, -2, -2, -12, -10, 15, -13, -86, -4, -16, -47, -80, -7, -88, 24, -20, -33, -21, -38, -57, -19, 12, -37, -68, 49, -12, -20, -16, 7, 11, 41, 10, 18, 14, -42, -18, 22, -34, -16, -19, 55, 24, 35, -14, 61, 46, -35, -54, -18, 6, -42, 15, 35, 64, -48, -19, -9, 43, 17, -50, -6, -70, 66, -27, 23, 0, 25, 21, 45, 63, 66, 59, -48, -60, -48, -53, -13, 75, 80, -33, -29, 24, -72, 20, -81, 24, 38, 43, 40, -2, 21, -9, -53, 20, -68, 9, 22, 75, -28, -32, 23, -37, -24, -44, 39, -36, -63, 24, -15, 34, 56, -6, -58, -69, -48, -56, -67, -4, 34, 1, 43, -50, -12, 67, -37, -70, 30, 27, -9, -67, -45, 8, 31, 46, 8, -44, 33, -5, 15, -49, 47, 54, 42, -98, -57, 2, 39, 
  -36, -12, 2, 23, -7, 58, -41, -16, -41, -60, 2, -7, 38, -5, 26, -78, 3, -43, 5, -48, 48, 17, -57, 73, -58, 6, 25, 52, -65, 22, 23, -15, -57, -60, -34, -29, -69, 3, 53, 45, -38, -67, -59, -50, 20, -63, -72, 16, -19, 7, 1, -3, -60, 46, 47, 67, 34, -6, 28, 5, -63, 2, -40, 38, 15, -37, 40, 26, 27, -18, -27, -7, 25, -1, -65, -34, 21, 61, 50, -37, 31, 39, 25, 65, 54, -45, -31, -49, 53, 38, 60, 74, 71, -17, -62, 41, 19, -33, -10, -31, -29, 72, 26, -11, 68, 76, 20, 70, 43, -59, -28, -11, -11, 66, -50, 43, 45, 54, 26, 53, 65, -28, 46, -56, -33, -10, 70, 28, 6, 34, 35, 60, -58, 1, 10, -31, 9, -10, 25, 7, 33, -58, 74, -27, 40, -9, -44, -19, 86, -60, 30, -2, 54, 12, -8, 60, 78, 29, -16, -9, -41, 55, -5, 54, 76, -51, -19, -42, -33, -17, 29, -63, -43, -18, -13, -4, 14, -50, 54, -40, -59, 96, 66, 54, 41, 43, -23, 63, 42, -29, 53, -25, 73, -24, -61, 78, 45, -24, 48, 10, 41, -37, 39, -19, 21, -26, 36, 
  -28, -19, 5, 23, 49, -41, 4, 66, -28, -21, 34, 27, -74, -26, 35, -4, -12, -40, 52, -70, 8, -47, 69, 32, 47, 0, -79, -48, 36, -24, 56, 13, -28, 70, 33, -1, 20, 35, -9, 47, -60, 14, 61, -22, 23, -39, 27, 61, 26, -3, 71, -28, -29, 18, -4, 19, 26, -16, 24, -43, 50, -5, 38, 11, 28, -37, 26, -58, 49, -15, 36, -29, -42, -38, 68, 35, 47, 47, 34, -31, 48, -35, 12, -56, -13, 68, -46, 58, -51, 11, 59, -53, 62, -65, 14, -39, 64, 33, -52, 50, -42, -5, -20, 2, 44, 46, -40, 68, 51, -15, 47, -65, 50, 45, -46, 45, 6, -14, 3, -68, 42, 55, -29, 28, -52, 43, 43, -51, -65, 20, -49, -25, -50, 44, 41, 71, 67, 7, 74, 86, 9, -62, 38, -31, -4, -39, 12, -36, 20, 12, -57, -36, 18, 36, -9, -45, 35, 5, -62, -12, 12, 24, -60, -44, 40, 20, -13, 12, 59, 33, 55, 65, -64, -32, 46, 58, 54, 28, -40, -23, 20, 34, 31, -16, -66, -23, -46, 19, 57, -1, 70, 21, -31, -15, -29, -48, 10, 15, -10, 33, -38, -66, -15, 1, -7, -13, -53, 
  -7, 68, -18, -12, -83, 43, -5, 42, 12, -62, -43, 17, -75, 45, -76, 2, -35, 27, -61, -28, 20, -65, -45, 8, -9, -21, -13, 72, -43, 20, 27, -61, 10, 18, 62, 43, -68, -47, 8, 0, -16, 44, -26, 7, 51, -37, -38, -69, 8, 59, 50, -66, -25, 2, 68, -12, 45, 28, 52, 72, 50, -16, -63, 12, 15, -50, 0, -66, 39, -40, -41, -2, 69, 58, 6, 4, -68, 43, 3, -12, -28, -3, 44, 56, -2, 34, -61, 6, -67, 14, -69, 17, -22, 46, 66, 26, -30, 27, -40, -67, 53, 14, 40, -58, 2, 65, -3, 36, -28, -51, 6, -69, 63, 43, -14, -73, -28, 3, 27, 17, 39, 55, -10, -11, -18, 43, -46, -33, -63, -26, 64, 66, -37, 35, -11, 11, -42, -2, -60, 16, 47, 20, 58, 2, 30, 4, -80, -10, 23, -62, 55, 18, -66, -57, 22, -12, -76, 20, -14, 58, 3, 63, 6, -30, 1, -70, -27, 6, -43, 60, 51, -62, 63, 37, 55, -12, 19, -1, 41, -45, 59, 3, -72, -21, -39, 65, -12, -43, 34, 69, -44, 57, 10, 45, 73, -72, 69, 47, 70, -49, 14, -16, 41, -67, -71, -67, -72, 
  -39, 5, -3, -52, 9, -49, 69, -64, 13, -71, 6, 10, 36, 69, -16, 7, 18, 65, 26, 26, 27, 35, 13, -33, 34, 27, -8, -18, -53, 8, 62, 9, 34, -44, -26, 70, -71, 52, 56, 48, 65, -15, 41, -2, -67, 17, 4, -67, -27, -66, 27, 69, 8, -51, -26, 66, 66, 14, 45, -48, 34, -31, -32, 60, -15, -18, -34, 26, -53, 28, -47, -3, -16, -12, 72, 6, -31, 48, -77, -30, -47, -29, 58, 32, -7, 57, -29, -33, 63, -8, -42, -10, 55, -9, 42, -64, 14, -28, -5, 51, 28, -39, 43, -60, -57, 69, 53, -72, -43, -46, 18, 64, 42, 14, -28, -70, 17, -17, -65, 68, -34, -10, 51, 48, 29, -15, 0, -37, -67, -62, -53, -6, 12, -30, 16, -21, 32, -44, -16, 45, 70, -65, 1, 4, -6, -67, -68, 78, -63, -22, 6, -47, -49, 29, 65, 31, -33, 49, -48, 34, 47, 65, -70, 0, -5, 38, 37, -31, 25, 11, 34, 24, 66, -31, 45, -12, -26, -65, -20, 71, 12, 36, 36, 20, 45, -5, -54, 31, 42, -12, 33, -70, 1, 32, 33, -39, 8, -54, 40, -57, 60, 25, 51, 74, 48, -34, 61, 
  84, -8, 70, -50, -40, -35, 51, 74, 54, -62, -74, 41, -92, -62, -4, -74, -34, 27, -31, -63, 60, 71, 36, 3, 7, -4, -42, -39, 71, -11, -7, 32, -29, 66, -7, 68, 50, 15, 69, 23, 59, 2, 67, -11, -42, -54, -26, 62, 27, 25, -53, 8, 37, -33, -46, 25, 43, 64, 0, -3, -68, 69, 47, -32, -14, -72, 48, 40, -14, 62, -102, -63, -29, 22, 2, 44, 82, 8, -73, 21, 34, 2, -64, 53, 17, 53, -62, 5, 41, -34, -72, -11, -33, 67, 56, -19, -72, 29, 24, -26, -64, 18, 8, 57, -60, 6, 53, 17, 54, -32, 63, -15, -37, 5, 16, -17, 29, -58, -64, -3, 62, 27, -11, 54, -58, 27, -41, -25, 27, -15, 15, -46, 53, 59, 69, 45, -15, -61, 56, 3, 28, -8, 93, -42, 22, 26, 53, 80, 6, 16, -3, -45, -51, 20, 70, -15, -10, -35, 41, -50, 36, -60, -4, 0, 17, -49, -34, -22, 41, -14, -68, 9, -65, 54, -17, -31, -42, -50, -66, 54, 38, 18, -58, 67, -7, -19, 34, -15, -32, -71, 16, -6, 49, -38, 53, -40, -47, 9, -11, -38, 40, 1, -46, 120, -43, 93, 48, 
  -63, 37, -50, -46, 17, 56, -9, 62, -9, -15, -61, -39, 45, -68, -39, 64, -46, -39, -48, -1, -12, -42, -39, 26, -63, 53, -29, -57, 45, 41, -61, 11, 1, 42, 70, 28, 46, -12, -27, -30, -53, 48, 27, 21, -45, 5, 33, 37, 19, -25, 69, 22, -36, -22, 37, -21, 7, -10, 40, -32, -65, -26, -60, -34, 53, 51, -68, -68, 12, -29, 63, 30, -22, 70, -6, -20, -19, -57, 67, -50, -43, 5, 27, -56, -63, -57, -36, -23, -16, -29, 19, -64, -19, -61, 56, 42, 33, 52, 21, -50, 46, -41, 21, 43, 18, -54, -2, -32, -69, 40, -26, 25, 20, -12, -5, -71, 62, 43, -14, 6, -50, -1, 12, -68, 53, -28, -75, -72, -68, 2, 38, 52, 56, 2, -17, 34, 42, -51, -20, -42, 63, 57, -48, 51, 78, -34, -29, -48, -35, 70, -53, -19, 53, -13, -71, -44, 26, 45, -4, -42, -32, -20, -42, 21, -52, -27, 53, 34, -16, 19, 30, 5, -23, -63, -51, -70, -56, -71, 63, 37, -10, -31, -21, 40, 71, 0, 58, -54, 70, -10, 36, -34, -57, -71, -52, -52, 48, 0, 38, 37, -60, 52, -14, -1, -18, 47, -29, 
  -9, -3, -57, 23, -37, 54, -82, 40, -38, -56, 34, -26, -21, -4, 31, -53, 7, 34, 59, -79, -36, 10, -36, -11, -4, -76, 61, -42, 54, -57, 47, 50, -45, 47, -62, 34, -52, 40, -63, 37, 25, 5, 35, -26, -60, -14, 19, -1, -69, -69, -21, -72, -42, 40, 29, 59, 11, 65, 6, 24, 42, -1, 34, 19, 61, 49, -33, -51, -31, -54, -47, 17, -37, -2, -54, 57, 31, 15, 28, -23, -17, -7, -30, 50, 53, 36, 22, -1, 51, 76, -40, -48, 41, 6, -31, 79, 32, -36, -61, 6, 71, 20, 0, -57, 33, 42, -12, -55, -36, 58, 10, 3, 64, -27, 14, 22, 22, 5, -17, 65, -56, -33, 2, 33, -66, 34, -28, -27, -56, -6, 60, -70, -69, -62, 46, 42, 8, -39, 68, 82, 65, 53, 45, 48, 35, -27, 62, -70, -50, 2, 42, 27, -15, -23, -29, 53, 70, 36, 6, -45, -21, 68, -56, 13, -48, 36, 30, 43, 59, -19, 67, 60, 38, -39, -28, 44, -79, 51, 34, -47, 7, -23, 33, 13, -23, -15, 66, -81, 27, -53, -20, -22, 4, -75, -51, 24, -18, -38, 5, 14, 16, -21, 1, 0, -59, -11, -70, 
  29, -63, 3, -68, -18, -35, -57, 13, 51, -31, 13, 4, -4, -7, 11, 16, 2, 28, -7, -69, 28, 48, -66, 40, 39, -1, 64, 77, -43, 38, 26, 46, -72, 51, 0, -56, 64, -16, 3, 61, -8, 18, 22, -54, 27, 12, 18, -14, 65, 15, -14, 35, -60, 57, -8, -33, 50, 4, 41, 72, -24, 24, 35, -13, 67, -18, -6, 6, -31, 72, -9, -34, 3, -20, 14, 38, -56, -21, -4, 84, -19, 17, 46, 33, 47, 33, 60, 59, 43, -2, 73, 95, 15, -41, 67, 12, 22, 65, 33, 69, -48, 50, -22, 3, -7, 60, -14, 68, 35, -45, -76, -56, -57, -25, 52, 11, -66, 47, -36, -44, -41, 72, -64, 15, -26, 50, -33, 11, 66, 20, -41, 28, 12, 34, -14, 34, -36, 31, 12, -1, -32, -29, 56, -68, 8, 58, 17, -78, 16, -11, -22, 36, -27, -19, 58, -52, 15, -36, 66, -30, -51, -12, -27, -14, 52, 51, -31, -5, 40, -58, 13, -11, -30, 33, -13, -60, -49, 53, 4, -71, 5, 8, -40, -61, -66, 47, -17, 22, -4, 4, -22, 27, -8, 54, -63, -27, 13, -52, 50, 42, 27, 46, 48, -15, 45, 34, 67, 
  -7, 48, 2, 17, 40, 29, 48, -74, -80, 8, -21, 51, 15, -26, 39, -74, 32, -40, -48, 30, 61, -47, -19, -61, 56, -20, -73, -39, -40, 15, 57, 25, -39, -11, -58, -57, -43, -59, -36, -39, 57, 59, 58, 67, -56, -42, 62, -41, 1, -16, 53, -27, 27, 62, -67, -43, 45, -21, -40, -42, -8, -44, -64, -67, -32, -66, -8, -81, -23, 59, 13, -18, 19, 36, 6, -36, -61, -3, -37, -32, -67, -25, 6, 42, -14, -70, -46, 38, -43, -32, 30, -45, 11, -34, 47, -57, 64, 52, -7, 21, 4, -43, -32, 25, 64, -31, -24, 8, 34, -44, 5, 7, -58, 7, 70, 28, 0, -51, -40, 50, -60, -45, 15, 32, 8, -52, -66, -18, 26, -29, -77, -25, 39, 13, -5, -47, 71, 59, 54, 41, -41, 3, 60, 42, -2, -18, 7, -38, -9, 45, 40, 16, -73, 24, 48, 18, -26, -64, 27, -52, -21, 59, 1, -68, -12, 24, -55, -52, 13, -29, -39, 47, 5, -7, -15, 50, -64, -44, 6, -53, 9, 60, -5, 7, -46, -79, -18, -55, -36, -47, 33, -72, 61, -40, 19, 25, 8, 49, 12, 39, 26, -15, 25, -28, 59, 57, -26, 
  68, -71, -53, 1, -22, 1, -49, 20, -30, 27, 34, 63, -52, -12, -62, 39, -49, -32, 39, 18, -53, 46, -35, 38, -47, -8, -15, 65, 31, 35, 46, 49, -49, 37, 49, 34, -59, 42, 14, 44, -52, -67, -69, 61, 16, 42, 59, 6, -20, 51, 33, -1, -26, -6, -11, 64, 61, -35, -22, 42, 56, 63, 53, -36, 9, 45, 69, 46, 7, -67, 19, 6, -11, 43, 11, 36, 59, -34, 54, -40, 53, -16, -68, -50, -28, -28, 0, 7, 27, 1, 5, -38, -64, 33, 30, -46, 26, 1, 13, 17, 59, 33, -63, -44, -64, 40, 20, -63, 66, -22, -28, 41, 26, 68, 44, -55, 5, 52, 32, 64, 51, -72, -34, -37, 22, 58, 32, 47, -2, -30, 21, 39, -16, -67, -37, -33, 41, 9, 8, -50, -39, 0, -47, 15, 2, 18, 49, -9, 59, -81, 17, 57, 46, -50, -28, 9, 16, -70, -10, 24, -25, -7, -73, 1, -26, 3, -18, 0, -54, 42, -31, -12, 9, 60, 36, -42, 38, 56, 30, -43, 28, -53, 30, -38, 74, -4, -64, 0, -34, 10, 62, -34, -33, 15, 73, -28, 54, 49, -68, 68, 22, 34, -24, 43, 24, 66, -25, 
  58, -54, -15, -52, 35, -60, 2, 25, 50, -66, -1, -62, 14, -25, 29, 72, -30, -11, 43, 24, -45, -46, 17, 50, -24, 73, -36, -63, -10, 53, 21, 44, -65, -31, 62, -42, 63, -57, 58, -21, 25, -26, -31, 12, -66, -7, -66, -25, 2, -38, 57, 8, 59, -29, -59, -41, 69, 66, 15, -21, 43, 44, 38, -26, 6, -30, -4, 5, 1, 63, -28, -19, -55, 61, 63, -58, 18, 9, -23, -66, -49, -49, -26, -30, -18, -2, 9, -19, 8, -58, -72, -2, -17, -70, 40, 50, 54, -28, 2, -50, 14, 30, -68, -30, -67, -16, -49, -49, -48, 43, -41, -51, 10, -9, -25, 70, 40, -25, 14, 1, 46, -14, 52, -23, -28, -4, -23, 21, -33, 28, -8, -48, 50, -61, 11, 68, 29, -47, -2, -33, -53, -1, -49, -14, 14, 71, 48, -72, 19, 62, 77, 1, 9, 73, 51, -14, 11, 14, -43, 68, 1, 67, -13, -49, -50, -37, -25, -12, -55, -50, -59, -33, -49, -60, -30, -11, 70, 20, 44, 49, 10, -56, -57, 48, 33, -43, -1, -73, 0, 1, -62, 2, 58, 4, 1, 53, -6, -3, 15, -6, 26, -19, -32, -34, -61, -6, -27, 
  54, -59, -44, 29, -77, 58, -8, -36, 16, -20, 49, 34, -10, 56, 52, 66, -8, 47, -50, -55, -65, -44, -55, -38, 18, 6, 69, -68, -66, 17, 24, -38, 52, 5, -44, -15, 26, 67, 47, 58, -31, -28, 44, 37, 50, -15, 44, -18, -17, -67, -37, -54, -58, -42, 56, 67, -31, -55, 13, -6, -23, -49, 21, -65, -5, -54, 4, -67, -2, 10, 75, -52, -43, -16, -67, 61, -16, -34, -49, 29, -53, 23, -51, 14, 52, -38, 5, 35, 25, 59, 67, 1, -15, 23, -22, -52, -12, 26, 44, -16, -2, -55, 37, -17, 74, 46, 46, -1, 55, -72, 56, -5, 47, 12, -26, -55, -53, 68, -34, -41, 6, 8, -24, -16, -37, -1, -18, 34, -72, 28, 56, 59, 0, 58, -37, 61, -17, -8, 78, 18, 59, 1, 7, 49, -32, -11, -23, -23, -38, -74, -71, -15, -59, -1, -63, -70, 8, -6, 20, -19, 22, -27, -39, -61, 42, -48, 72, 40, 0, -18, 24, -45, 23, 18, -64, -5, 30, -42, 56, 7, 33, -26, -57, -70, -34, 47, 4, -27, 10, 27, 30, -76, -1, 14, -8, -23, -9, 25, -35, -54, 37, -27, 5, -17, 34, 1, -51, 
  57, 23, -33, -17, -75, -56, 27, 53, 6, -56, 38, -19, -61, 41, -83, 4, 19, -71, -62, -47, -50, 12, 13, 60, -37, -17, 36, -50, 44, 65, 22, -7, -3, -10, -63, -54, 60, -33, -30, 33, 28, 66, -18, 72, 40, -51, 67, -11, 25, 69, 37, -9, 27, 13, -9, -41, -22, 22, 54, 3, 3, 72, 51, 10, -43, 10, -77, 58, -23, 99, -50, 26, 33, 27, 62, 36, -4, -66, -26, 64, 54, -52, 37, 60, 7, 56, -35, 47, 12, -16, -15, 34, 24, -34, 55, -22, 76, 62, 36, 78, -39, 55, 11, -4, -19, 82, 69, 43, -33, -43, 67, 2, -24, -1, -38, 51, 60, 32, 52, 63, 17, 49, 41, 4, 65, -54, 14, -70, 22, -39, -57, 32, -11, 47, 38, -49, -38, -22, 71, -14, -24, 32, -40, -34, -39, -67, 69, -42, 46, -36, 31, -17, -6, -9, 10, 10, 60, 21, 62, -23, 62, -50, -52, -10, 31, 53, -38, -13, 1, -32, 84, -55, 28, -62, -8, 17, 63, -75, -18, -75, -62, 38, -33, -24, 67, -40, 0, 10, 35, 26, -49, -62, 1, -49, -64, -48, -21, -46, 65, 53, -28, -2, -25, -2, -69, 10, 40, 
  -33, 29, -14, 53, 11, 24, 30, 16, 37, -36, -75, -69, 51, -57, -53, -32, 60, 26, 20, 49, -5, 40, 59, 61, 32, -14, 63, -11, 6, 35, 5, -12, -12, 30, 66, -15, 68, -3, -20, -50, 40, 44, 29, 46, -44, 56, 14, 57, 27, 62, -21, 16, 31, -15, -72, 6, -31, -55, 48, 36, -68, -4, 66, -25, 1, 59, 34, 59, 19, -40, 1, 63, -77, -62, 26, -8, -70, 47, -13, -4, 5, 75, 31, -14, -53, 28, 58, -27, 31, 5, 81, 71, 24, -32, 36, 48, -9, 64, -1, -16, -47, 9, -53, 70, 3, 31, -61, 41, -32, 31, -64, 18, 42, 38, -20, 59, 21, -65, -65, -59, 38, 19, 2, -33, -33, 0, -13, 50, 18, 24, -25, 64, -27, -61, 85, -20, 45, 41, -37, -52, -66, -58, -7, 23, 73, -51, 56, -19, 77, -10, 19, 16, 47, 62, -42, -34, -38, 35, -67, -59, -27, 5, -67, -12, 44, 30, 39, -29, -70, 10, 38, 39, -38, -75, -59, 13, 28, 4, -33, -49, -62, 6, -36, 21, -67, 20, 7, -85, 42, 17, 17, 7, -60, 39, 26, -26, 46, -30, 62, -69, -36, -54, 36, 9, -69, -18, 67, 
  44, 10, -60, 19, 12, -49, -53, 74, -4, -24, 21, 21, -55, -51, -62, 68, 56, 11, 60, -3, 33, -67, -50, -68, -40, 56, -34, -30, -27, -50, 58, -70, -16, 72, 10, -38, 44, -11, -70, -72, 53, 57, -13, -4, -13, -70, 59, -23, 36, 66, -29, 32, -5, 67, 3, 3, -55, 10, 11, 4, 0, -15, 62, 2, 48, -8, -9, 15, -14, 16, -21, -16, -3, -55, 6, -25, -4, 42, -71, -45, -73, 30, 82, -11, 12, -34, 7, -49, 41, -51, 16, 10, -50, -50, -16, 0, -58, -26, -47, -18, 55, 28, 66, -67, -74, -19, -56, 11, 33, -62, -75, -43, -32, 40, -50, 23, -73, 22, 10, -64, 42, -32, -51, 28, 11, -53, 65, 48, 42, -8, -2, 28, 71, -37, 32, -41, -70, 2, -1, 16, -46, 52, -52, 64, 33, 63, -40, 32, -63, -57, 66, -68, 21, -51, 48, 33, 39, -32, 15, -6, -2, 0, -34, 4, -39, 16, 40, -25, -17, 27, 38, -19, -5, 12, 13, -45, -60, 60, -22, 71, 56, 6, 33, -23, 56, -77, 23, -62, -2, 56, -55, 30, -72, 17, -36, -47, 60, 1, 60, -46, 20, 52, 23, -58, -14, -37, 88, 
  91, -25, 1, 60, -34, -7, -23, -27, 51, 31, 34, -24, 21, -39, -2, -12, 54, -49, -17, 54, 34, 25, -29, -41, -69, -11, -49, 14, -31, 21, -4, 57, -39, -16, -13, 38, -8, -63, -11, 23, 30, 67, -6, -34, -64, -72, -2, -34, 33, -31, 65, 29, 18, -1, -28, 52, 17, 35, -48, -27, -8, 39, -10, -50, -20, -48, 47, -55, -27, 31, 27, 7, -70, -39, 11, -33, -15, 38, -65, 10, -32, 1, -62, -40, -11, 18, 68, -41, -31, -69, 65, -19, 33, -67, -32, -29, -25, 24, -35, -13, 33, -68, -41, 11, -45, 50, -62, -62, 54, 23, 20, 15, -6, 14, -1, -71, 23, -28, -5, -55, -18, -37, 14, 54, 50, 18, 51, 17, -48, 40, -33, -34, -18, -41, -56, -12, -33, 40, 98, -75, -54, 5, -65, 9, 12, -20, 5, -16, -14, 19, 38, -68, 56, -16, -13, 23, -59, 41, -6, 12, 0, -58, -57, -48, 28, 11, 34, 62, 31, -11, 60, -21, 50, -43, -54, 27, 31, 70, 47, -28, 11, -55, 64, -40, -19, 32, 15, -12, 61, -68, -47, 7, 47, 16, -20, -55, 15, -4, 58, 64, -60, -69, 56, 6, -29, -73, 68, 
  25, -7, -44, -30, -78, 64, -49, 56, -24, 65, 66, 49, 1, -24, -13, 20, 24, 1, -31, -52, 49, 14, -51, 33, 13, 10, 22, 36, 32, 67, 2, 35, -57, -2, 46, 24, 3, 66, -19, 53, -62, -17, -44, -37, 45, -47, 66, -7, -50, 28, -60, -63, 65, -51, -43, 34, -63, -56, 39, -4, 44, 52, 72, 18, -54, 43, -53, 16, -21, -4, 0, -5, 10, 76, 18, -64, 21, 72, -16, -14, 75, 41, -57, 5, -51, 62, -16, -2, 19, -13, 64, 24, 3, -42, 70, -17, -55, -56, -30, -33, -41, -43, -32, -7, 14, 1, 64, 35, 51, -24, -17, 71, 32, -36, -42, 5, -20, -60, 15, 35, -71, -69, -3, 27, -68, 53, -13, -59, 66, -26, -58, -48, -13, 8, 8, 11, -44, -74, -47, 6, -3, -46, -35, 28, -27, 67, -10, -10, 48, 18, -27, 29, 36, -44, 65, -78, 63, -18, 59, 8, 17, 16, -25, -70, -41, -7, -47, -61, -24, -43, -70, 14, 28, -22, 23, -19, -21, 28, -67, -48, 42, -57, 54, -62, 52, -71, -39, -22, -36, -29, -46, 35, 62, -61, 0, 57, -7, 39, 66, -43, 37, -69, -58, 91, -39, -13, 2, 
  -43, 26, -47, -41, 58, 12, 75, -30, 66, 72, 13, 52, 23, 50, -34, 16, 52, 16, -43, 20, -15, 0, -65, 15, 58, -23, -28, -48, -28, 34, 1, 31, 24, 3, -30, 32, 36, 64, -69, -34, 9, -3, -22, 35, -41, -33, -11, -15, -1, 65, -2, 8, -29, 42, -63, 20, -35, -43, 11, 67, -8, 40, 38, -1, 25, 52, 5, -8, 69, 48, 12, -22, -54, -12, 53, 54, 50, 3, 56, 15, -48, -29, -47, 20, -48, 58, -4, 32, 21, -26, -59, 21, -53, 65, 6, -22, 53, 53, -56, -2, 63, 26, -26, -8, -13, 14, 44, -20, -49, -59, -51, -43, 31, -3, 29, 58, -47, 63, -15, -31, -13, 37, -17, 38, -16, 63, -39, 23, 36, 31, 9, 50, 38, -53, 17, -19, -21, 73, 30, 25, -48, -1, -58, -25, -11, -31, 20, -31, -14, 76, 39, -35, 5, 17, -56, 13, -61, -16, 2, 2, 9, -56, 63, -1, 24, 35, 36, 51, 17, 29, 31, -3, 60, 59, -61, 7, -52, 53, 6, -11, 8, -47, 34, -46, 7, -41, -9, -25, 21, -28, -67, -46, -32, 18, -19, -47, -56, -6, -61, 57, -62, -62, 52, 23, 23, -52, -29, 
  111, 13, -38, -14, -9, -24, -57, 22, 8, -26, 59, 87, -29, -32, 18, -32, -36, -5, 57, 27, -37, 42, 41, -32, -37, 61, -6, -71, 51, -53, 19, 26, 2, -3, -59, -23, 41, 3, -44, -32, 37, 58, -24, -24, 62, 72, -50, -72, -31, 69, 5, 50, -5, -12, 67, 44, 22, 58, 1, -21, -48, 15, 17, -3, -23, 53, 12, -13, -39, 26, 15, -29, -64, -46, -61, -52, 25, -11, 29, 44, -58, -9, 39, -44, -39, -15, -69, -39, -28, -49, -38, -33, 5, 49, -42, 12, -47, -57, 59, 9, -2, -13, -29, 1, 64, 0, -26, -53, -30, 20, 38, 18, 41, 68, 31, -49, 53, 2, 32, -36, 6, -45, -45, -15, 39, 56, -68, 41, -34, -54, -34, -20, 50, 55, 34, 0, -67, 72, 7, 79, 51, 57, -40, 22, 20, -3, -22, 36, -28, 24, -16, -67, 5, 33, -51, -73, 28, -21, 9, 65, -4, -47, 33, -22, 23, -11, 20, -21, 62, 53, 43, -6, 70, -41, 52, -28, -70, -26, -49, -17, -27, -26, -70, -46, 69, -14, -68, -70, -2, 51, 9, 70, 28, -54, 17, 10, 16, -55, -34, -65, -67, 43, 0, -41, -62, -18, -42, 
  64, 26, 77, -24, -57, 28, 51, 25, 31, 25, 19, 68, 29, 71, -51, -5, -33, -22, -48, 38, 53, -10, -51, -32, 16, -62, 43, -58, -44, -20, -14, 61, 55, -18, -67, -70, 2, 53, -59, 23, 9, -38, 24, 44, -33, 10, -65, -69, 67, 17, -29, 50, -43, -30, 36, -60, 46, 51, -70, 68, 13, 69, 63, 2, 16, 24, -57, 36, -59, 54, -13, 52, 19, 46, -2, -32, -41, -37, 83, 83, -50, 1, -22, 6, 70, 63, -20, -47, 27, -5, 46, 75, 40, 47, -24, 42, 60, -66, -58, -7, -55, 64, 5, -71, -7, 39, -38, -41, 72, -70, 66, -52, -38, -6, 57, 25, -6, 57, 42, -9, -32, -27, -47, -12, 34, -61, -18, -10, 70, 65, -50, 68, -28, -15, 48, -38, 50, 15, -36, 5, 23, -38, -35, -22, 8, -27, 53, 46, 35, 38, 81, -25, 21, 70, -32, 49, -39, 54, 71, 18, -5, 6, 31, 21, -31, -53, -39, 41, 54, -7, -16, 36, 64, 18, 51, 72, -51, -30, 60, 57, -68, -4, -5, -14, -43, -61, -14, 52, 29, 38, 26, -11, -16, -3, -1, 50, 25, -69, 7, 37, 66, 10, 33, 14, 6, -17, 45, 
  -6, 34, -16, -24, -30, -1, -69, 58, -3, -59, -49, 56, 26, 13, -19, -62, -24, 27, -49, -50, -51, -18, -37, 48, -65, 36, -15, 51, -20, 26, 41, 14, -22, 14, 2, -27, 71, 13, 30, -72, 58, 53, -48, -37, 15, 11, 28, -25, 1, -19, -46, 6, -41, 43, 35, -71, -61, -51, 43, -71, 14, 52, 14, 36, -59, 81, -18, 13, -9, -13, -2, 84, -56, 68, -6, -16, 51, 70, 6, 81, -31, 50, -49, 0, -49, 38, 19, 30, -24, -21, -23, 62, -17, 12, 61, -65, 6, -24, -8, -19, -24, 11, 74, 61, 58, 49, 55, -44, -16, 18, -70, -70, -51, 27, -39, -35, 44, 66, -72, 11, -68, -60, 25, -25, -6, -1, -3, -7, 68, 16, -9, 40, 16, 14, -45, 39, -19, 68, 67, 48, 13, -18, -14, -49, 7, -27, 18, -12, 23, -24, 8, 82, 25, 79, -6, -32, -1, 51, 58, 52, 52, 46, 64, 76, -31, -17, 46, 18, -50, 8, 55, -43, 57, 59, 51, -52, -25, 66, -30, 51, 26, 43, -29, -66, -70, -26, 41, -63, 43, 61, 7, -16, -60, 69, 27, 66, -71, -9, 7, 65, 18, -32, -52, 15, 49, 19, 41, 
  -18, 42, 60, -19, -18, -62, 6, 21, 51, 2, 1, -20, 59, -33, 60, -62, -23, -61, 61, -25, 67, -71, 70, 40, -45, -19, -71, -37, -44, -24, -50, 69, 35, -68, 49, 46, 8, -28, -55, -35, -8, 40, -15, -44, 62, -63, 57, -12, -31, 19, 25, -20, -7, 35, 5, 41, 49, 58, 51, 15, -29, -58, -1, 17, -62, -13, 20, -3, 1, -20, -28, -1, -52, -72, -45, -65, 42, -66, 12, 42, 4, -69, -45, -13, -71, -21, -78, -24, -67, -29, -59, 24, 17, -36, 54, 52, 20, -8, 10, -9, -68, 45, -46, -42, -63, -5, 3, -39, 48, 51, 66, 27, 15, 67, 35, -63, 13, -64, -11, 19, -60, 0, 37, -2, -5, -31, -9, -36, -14, 24, -14, 36, 24, 33, -70, 36, -36, -76, -33, -14, -39, 63, 19, -51, 62, 58, 54, -15, -12, 57, -37, -17, 52, -59, -77, 58, -29, 36, 50, 63, 43, 35, -26, 40, 34, 39, -18, 26, -56, -60, 26, 31, 25, 0, -44, 1, 27, 52, -11, -55, 55, 69, -76, -16, -45, 8, 56, 67, -39, -47, 59, -15, 7, -2, -49, 22, -21, 61, 17, -47, 32, -36, -22, -55, -67, 19, -42, 
  31, -43, 58, -1, -46, 68, -64, -46, 10, -44, -70, 13, 30, -64, 25, -28, -52, 54, -56, 48, 74, 13, 8, 43, 10, -8, 7, 50, 43, 57, -50, -65, -2, 27, -15, 14, -11, 46, 11, -31, -47, 25, 34, -9, -59, 26, -55, 30, 61, -69, 55, -35, 1, 11, 63, -31, -16, 64, 60, -59, -57, -35, -43, -45, 21, 22, 62, 28, -37, 13, 76, -16, -64, 14, 19, -61, -42, -26, 6, -34, -30, 17, -16, 53, 31, 50, -75, 47, 11, 0, -50, 22, -46, -23, 21, -39, 42, -44, 49, -28, -50, 25, -14, 58, 56, 57, 38, -7, -61, 57, 6, 36, 15, -21, 0, 60, 67, 58, -8, -44, -33, -11, -68, -61, -17, -19, -12, -35, 1, -71, 29, -7, 58, 0, 74, -20, 35, -29, -64, -64, 21, 51, 41, -41, 20, 0, -41, -37, -43, 43, -58, -53, 49, 42, -67, -72, -8, -71, -27, -32, 3, -47, 4, -63, -29, 58, -9, 1, 65, -64, 13, -32, 55, 40, -42, 13, 1, 21, -65, -27, -23, -32, 53, 18, 45, -19, -23, 70, 33, -47, 13, 62, 17, -58, 11, -22, -53, 10, -2, -11, -43, 33, -65, 64, -9, -38, 46, 
  -46, -13, -37, 15, -31, -65, 4, -39, 35, -3, 37, -17, 31, 60, -70, -12, 39, -8, 31, -30, 0, -69, -16, -74, 61, 31, -33, -61, 41, 56, -1, 31, -19, -17, 18, -4, 34, -54, 53, 29, -6, -52, -3, -59, -6, -69, 8, 37, 12, 64, -4, -33, -69, 19, 57, -13, -42, -41, -31, -50, 30, -71, -71, 55, -3, 34, -46, -50, -33, -60, -39, 47, -2, -40, -5, 34, -27, -17, 36, 77, 3, -17, 55, 43, 39, -43, 2, 39, 44, 82, -33, -40, 59, 71, -21, 46, 12, 1, 79, 9, -2, -30, 53, 35, 9, 8, -12, -41, 33, 39, 63, -50, -50, -23, -13, -58, 47, 42, -40, 7, -59, 64, -65, 56, 49, 39, 57, 64, 7, 49, 38, 61, 12, -71, -31, 75, -9, -31, -41, 43, 51, -45, 31, 72, -30, -5, 42, 15, 75, 24, -4, -16, 69, -33, 72, 11, 23, 28, 3, 70, -14, 15, -2, -51, -5, -62, 38, -47, -24, 56, -1, -3, 72, -42, -51, -17, 62, -53, 55, 29, -66, 31, -70, 64, -37, -7, -25, -53, 63, 67, -61, 51, -73, -18, -36, -46, 6, 10, 5, -58, -11, 52, -54, 94, 34, 49, 83, 
  -4, 11, 62, 12, -67, 15, 42, 35, -50, 44, 44, 62, -32, 68, -48, 39, 51, -11, 23, 17, -69, 67, -7, 18, -30, 16, -43, 6, -33, 6, -62, 20, 5, 44, 62, 66, 55, -45, 8, -7, -67, -60, -34, 58, -55, 14, -21, 3, -48, -59, 39, -42, 19, -22, 66, 6, 21, -10, 45, 18, 43, -25, -47, 31, -51, 79, 72, -32, 8, 16, -62, 57, -13, -31, -44, -8, 33, -81, 40, 58, -63, 31, -51, 24, -6, 9, 5, -19, 48, 11, -8, 26, 32, 45, -14, 16, 7, -44, 20, 58, -38, -18, -56, 7, 6, 3, 16, 11, 4, 40, 61, 6, -34, -52, 59, 71, 31, -38, -61, 53, 16, 39, 7, -24, 23, 20, -16, 25, -21, 62, -38, -57, -29, 68, -85, -32, -22, -50, 25, 2, 41, 31, -9, 45, -76, -6, 55, -50, 25, -46, 15, -24, -8, 13, 20, -13, -72, -77, -77, -84, 2, 25, -3, 36, 48, -45, -25, 48, -58, -10, 18, 20, 54, -48, 42, -27, 7, 37, -48, -2, -35, 48, 18, -16, 6, -38, -14, -62, 43, -28, -36, -22, 47, 53, 19, 24, 9, 19, 38, 2, -10, 37, -10, -73, -39, -48, -39, 
  -62, -9, -19, -60, -27, -3, 31, -73, -35, -8, 61, 18, 48, -55, -13, -27, 36, 31, 30, 50, 28, -28, -59, -54, -74, 35, -73, -29, -15, -48, -73, 21, -34, 36, -35, -25, -41, 18, -31, -4, 43, 41, 18, 39, 47, 5, -2, 0, -1, 8, 35, 18, -64, 52, 34, 38, 37, -49, -5, 15, 48, -14, 15, -64, 48, -27, -58, 4, 26, -33, 53, 36, 71, 65, -55, -29, -21, -14, -22, -55, -29, 36, 45, 35, 23, 63, 14, 24, -8, 0, -9, 28, 37, 47, 41, 48, 35, 42, 39, -27, -65, 28, -39, 2, -13, 37, 20, 22, 61, -34, 63, -10, 25, 25, 37, -30, -39, -40, 59, -73, -18, -6, 67, 12, -21, -71, 9, 12, -6, -54, -66, 52, 46, -70, 74, -15, 73, -64, -20, 4, -37, 7, -15, 28, 74, 67, 72, 34, -9, -51, -25, 6, 13, 3, 1, -52, 63, 63, 15, 12, 3, 1, -48, 2, 58, 5, 25, -19, 38, 36, 25, 43, -53, 68, -3, 26, 38, 37, -23, -54, -26, 4, 45, -10, -9, -62, -14, -71, 65, -63, 33, -58, -3, -1, 27, -70, 27, -69, -48, -71, -5, -44, -31, 7, 18, 28, 0, 
  -33, 5, 38, 8, -64, 5, -69, -25, -35, 49, 56, -39, -68, 9, -39, 10, -20, -41, -35, -68, 37, 44, -1, -68, 50, 64, -52, -10, -17, -5, 36, 54, -71, -56, -70, -53, 12, 33, 41, -70, -25, -70, 26, 64, 27, 42, -66, 55, 27, -19, -6, 18, -69, -60, 64, -71, 12, -38, -62, 52, -35, 12, 9, -38, 49, 58, 54, 22, -18, -6, -2, -52, -31, 39, -14, -11, 56, -3, 1, 18, -38, -75, 5, 57, 39, -19, -61, -36, 68, 40, -26, 44, -28, 37, -67, -37, 39, 53, -21, 56, -63, -22, 60, 73, 6, -29, -4, 20, 41, 13, -4, -2, 45, -2, -11, 60, 57, 62, -31, -20, -15, 39, 12, 9, -75, -79, -35, -38, 61, 27, 65, -73, 50, -9, -55, -33, 53, -60, 51, -8, 69, 28, -25, 0, 29, -31, 12, -14, -10, 20, -16, 42, -42, -76, 30, -44, 12, -22, 13, -5, 21, 58, -21, -55, -7, 24, -73, 60, -25, 33, -32, 12, 57, 52, 59, 60, -2, -40, -48, 57, 5, 68, -12, 31, -48, 39, 56, 25, -9, -12, -32, 22, 42, -36, 39, -41, 3, 10, 30, -47, 12, -6, -47, -5, 28, 56, 49, 
  -41, -44, -49, 41, -16, 66, -51, 32, -6, -7, 27, 2, -41, -21, -74, 9, 40, -73, -9, -28, 68, -37, 27, 12, -70, -60, -39, 39, 45, -49, -33, 33, -45, 36, 44, 69, -45, -71, -20, 30, -33, -33, -34, -58, 57, -14, 50, 72, 53, -46, -70, -12, 18, -47, -27, -64, 61, -10, 19, 3, -32, 48, -35, -22, -59, -8, 79, -38, 26, -33, 45, -42, 64, -54, 21, -54, 26, -48, 14, 2, 26, -25, -55, -2, -60, 76, -33, 45, -10, 8, 86, 6, 12, 52, -2, 14, 45, 30, -38, -53, -39, -35, 5, -16, 1, 67, 5, 7, 17, 69, 38, -64, -49, 62, -28, -18, 26, -45, 37, 40, -40, -66, -9, -33, -5, 9, 49, 29, 7, 38, 51, 10, 67, -12, 38, 8, -9, -62, 63, -50, 11, 58, -24, -52, -23, 29, -19, 47, -49, 45, -15, 38, 54, 73, -60, -12, 22, -58, 38, -14, 18, 10, -41, -55, 43, 49, -25, -33, 29, 70, 28, 4, -19, 60, -43, 31, 33, 29, -12, -65, 23, 19, -68, 8, 9, 54, 40, 51, -2, 21, 49, 48, 31, -64, -14, -47, -68, -55, 8, -10, 47, -37, -60, 20, 27, -24, 64, 
  -17, 55, 32, -39, -35, 13, 66, -60, -21, -56, -8, -15, -63, 0, 29, -38, -64, -70, -49, -52, -50, 56, 39, 44, -8, 19, 58, 32, -27, 77, -15, -35, -62, 23, -66, 16, 8, -54, 5, 36, 68, 59, 63, 69, 44, 51, -24, -10, 2, 49, 36, -69, -48, 15, -3, -40, -32, -70, 61, 21, -68, 31, 42, -15, -55, -32, -65, 46, 58, 71, -49, 33, 0, -62, 66, -9, 0, -36, 25, -40, 9, -4, 74, -28, -62, 21, -26, 10, 60, 28, -52, -23, 23, 66, 1, 22, 32, 46, 41, 3, 3, 63, 39, 27, 56, 25, 67, 35, 40, 40, 55, -63, 29, 32, 56, -48, 58, -59, 7, -69, 56, 31, 58, 55, 31, -41, 42, 0, -4, -41, 30, -21, 14, -32, -33, -39, 16, -27, 28, -56, 3, 49, -63, -6, 73, 82, 35, 64, 74, -56, -23, -35, -21, 0, 36, 18, -52, 18, -55, 35, -58, -42, -44, -36, 29, -19, -33, 40, 0, 33, 53, -70, 28, -6, -42, 66, -18, -27, -48, -71, -67, 70, 64, -52, 57, 27, 50, 44, -38, 35, -25, 49, 9, -10, -17, 3, -51, -31, -55, -76, -26, -45, -57, 55, 52, 47, -61, 
  -16, -12, -47, -27, -1, -39, 52, 49, 3, 44, 24, 35, 17, -79, -50, -37, -28, -67, -62, -7, 64, -17, -27, 15, 41, -4, -64, -62, -39, -36, -16, -69, 57, 62, 35, -47, 11, 26, 8, -53, 41, -14, 9, -57, -49, -11, 11, -1, 56, 42, -37, -63, 69, 32, -3, -12, -71, -41, -47, 19, 28, 57, 10, -72, 62, 17, 34, 56, 64, 5, 82, 88, 39, 72, 74, 80, 31, 86, 56, 86, 14, 45, -25, 35, 73, -18, 14, 72, 4, 1, -51, 54, -60, -56, 23, -44, -61, 67, 3, -35, 56, -10, 48, -57, 76, 4, 77, 24, 5, -59, 7, -8, -57, -62, 32, 29, -26, 24, 47, 56, -13, 73, 58, 4, -49, -40, -31, -47, -36, 58, 70, 65, -56, 61, -41, 22, 37, -27, 34, -50, -56, 10, -17, 25, 10, 13, 56, -68, 46, 8, 67, 40, 6, -52, -30, -56, -4, -12, 18, 33, 53, -31, 68, 65, -51, 72, -69, -16, -35, -2, -42, 16, 33, -17, -67, -53, -15, -46, 16, 0, -59, 6, -69, 51, 22, 19, -43, 16, 59, 39, 5, 11, -31, 3, 2, 64, 62, -58, -26, 35, 48, -61, 43, -29, 24, 63, 78, 
  -45, 9, 57, 0, -24, 51, 56, 13, 69, 0, 72, -31, -20, -5, 34, 22, 38, 9, 35, -40, -46, 30, 5, -73, 71, -67, 61, 63, 6, -49, -14, 28, -69, -69, -12, 24, 35, -72, 11, -10, 65, -39, 49, -70, 1, 70, 9, -51, 45, 49, 41, 28, -40, -62, -21, 1, -1, -2, -15, 62, 29, 72, 15, 48, -4, -24, -49, -47, -42, 34, -11, 34, -12, -17, 50, 6, 42, -53, 37, 3, -45, 81, -45, -38, 27, 4, 64, 19, 36, 6, 43, 55, 0, -43, -67, -64, -7, -3, -2, -27, -49, -35, -22, -38, -59, 46, -22, 21, 34, -9, -10, -54, -72, -63, 14, 45, -45, 67, -57, -61, -57, 36, -48, 27, -33, -10, 63, 18, 54, 57, -40, 17, -60, -51, -1, 34, -30, -23, 10, 19, 24, 42, 53, 52, 35, 43, 19, -21, -30, -11, 52, -7, 1, 64, -29, -51, 11, -43, 63, 69, 27, 18, -53, -2, 4, 42, 42, -30, -41, -2, -30, -29, 61, -3, -67, 69, -46, -36, -66, 17, -55, -25, -35, 3, 69, -49, 41, 7, -30, -63, -49, 1, 23, -54, -14, -19, 35, 23, 46, -33, 38, -23, 25, 81, 36, -14, -41, 
  60, -25, -47, 47, -8, -66, -43, -41, 14, -32, -74, -17, 6, -19, -60, -52, 64, -7, 26, 15, 65, 69, 13, -37, 28, 60, -58, -20, -60, -72, 40, 11, 6, 44, -1, -40, 71, 40, -18, -35, 30, 45, 61, 53, -37, 67, -64, 68, 57, -2, 24, 3, -25, -67, -56, -37, -7, 35, 64, 47, 56, 46, -68, -54, -63, 37, -3, 32, -31, 6, -52, 30, 3, -61, 17, -57, -11, -69, 3, -62, 30, -75, -47, 23, -29, 20, -44, -27, -59, 60, 29, -58, 10, 55, 14, -55, 41, 22, -31, 3, 64, -17, 63, -25, 38, 32, 2, 65, -52, 30, -12, 38, 46, -46, 25, -57, -18, 63, -54, -72, 63, -15, 31, 53, 63, -25, 31, -9, 25, 1, -25, 27, -52, -36, -11, 14, -11, -33, 46, 40, -72, -59, 7, -50, -58, 67, 14, 33, 42, 11, -46, 18, 45, -22, -40, -61, -49, 4, 55, 66, 2, -42, 6, -15, -26, 48, -27, 46, -64, -38, 43, 19, 48, -13, -48, -55, -37, 69, 0, -61, 41, -48, -33, 48, 65, -25, 35, 3, -67, 57, -53, 58, 35, 32, 66, 14, 2, -40, -19, -68, -10, 24, 22, -64, 15, 20, -66, 
  9, 20, -15, 1, -20, -24, 76, -15, -43, 11, -8, 51, 69, 66, 67, 31, 34, -29, -30, -14, -35, 45, -19, 59, -68, -31, -33, -32, -33, -58, -23, 51, -56, 23, 39, -63, 60, -8, -42, 12, 33, -71, 19, -25, -22, -32, 50, -2, 36, -68, -9, -26, -11, 41, 29, -27, 2, 63, 3, 54, 35, -55, 72, 53, 14, -28, -41, -46, 54, 20, 28, -5, 18, 72, -38, 17, -53, 74, -70, 23, -57, 40, 26, -27, -57, -16, -38, -6, -4, -3, -35, -26, -46, -30, -13, -3, 16, 70, 27, -47, 14, 13, 38, -55, 42, -29, 55, -38, 49, 41, -10, 43, 63, 8, -5, -54, 21, 26, -1, 5, 6, 6, -38, -10, 71, 67, -18, -20, 42, 26, -4, 50, -65, 72, 23, 63, 55, -36, -67, -27, 66, 25, -49, 62, -46, -15, -33, -60, -22, 5, -43, 27, -41, 40, -29, -62, 77, 32, -22, 8, -22, -56, 68, -35, -30, 32, 41, 27, -15, -56, 20, 23, 66, 25, -55, 44, 55, 20, -61, 73, -50, 38, 32, 30, -49, -19, 52, -24, 28, -5, 33, 41, 72, -4, -16, -1, -3, 34, 74, -18, -34, 6, -51, -69, -45, -48, -66, 
  -46, -6, -37, -20, 53, -30, 1, 34, -5, 16, 86, 49, 46, 69, -41, 39, 35, 71, -19, -51, 61, 23, -7, 65, 12, 64, -21, 6, -37, 7, -15, -2, 16, 63, -58, 41, 29, 6, -59, 9, 61, -14, 35, -37, -35, -33, -41, -5, 48, -55, -32, -59, -72, -29, -48, 38, 53, 56, 38, 39, 55, -3, -29, -25, -9, -43, -22, 23, 32, -32, -56, -10, -37, 41, 35, 59, -12, -77, -15, -35, -34, -71, -47, 28, 59, -35, -48, -33, -6, 55, -24, -58, -36, -16, -49, -63, 59, -48, -36, 58, 11, -44, 27, 16, -11, -15, 0, 1, -3, 23, 40, -26, -31, -13, -13, 41, 58, -26, -17, 56, -14, 57, -41, -16, 21, 68, 60, 7, 43, 56, -25, -11, 47, 45, -42, 1, -85, 44, 15, -4, 72, 20, -29, 8, 57, 31, 38, -16, 58, -10, 20, 56, -36, -67, 71, 16, 37, 78, 51, 68, -13, -27, -1, -1, -32, 60, -57, 48, -49, 2, -43, 29, 30, -24, 41, -24, 68, -37, 27, -24, 18, 82, 33, -10, -35, -49, 2, -12, -16, -88, -22, -46, -47, -69, -39, -54, -21, -40, -71, -54, -55, 53, -72, 3, -42, -48, -30, 
  -15, -62, 17, 21, -33, -16, 60, 21, -52, 40, -18, 4, -67, -32, -19, -22, 59, 43, -61, -26, -11, 26, 33, 75, 75, 46, -24, 61, -20, -14, -13, -23, -6, -70, -70, -13, -21, 63, -21, 48, -66, -41, 10, -42, 13, 11, -21, 35, -8, -16, -64, -26, -55, 16, 12, 58, -29, 18, -21, 61, 21, 18, 38, -66, -18, -34, 86, -21, 50, 69, -47, 49, 64, 14, 59, -13, -2, 36, -48, 68, 66, -14, 48, 76, 45, 32, 23, -59, 21, 74, 49, -31, -67, 46, 36, 20, -48, -47, 7, -50, -33, 63, 3, 65, 4, -15, -42, 37, 10, -6, 53, -38, -60, 28, 58, 38, -7, -40, -7, 64, -34, 25, -6, 65, -41, 10, 67, 0, 56, 36, -11, 28, -66, 53, -24, 76, -24, -19, 52, 18, 7, 68, -51, 37, -11, -45, 42, 62, -6, -3, -11, 37, 60, 65, -24, -32, 33, 18, -6, 30, -33, 15, 54, 50, 38, 43, -52, 37, -54, 67, 58, 6, -56, 59, 7, -47, -48, 16, 64, -41, -63, 34, -19, 58, 47, 42, -35, 0, 20, 12, -6, -22, 1, -65, 55, -52, 68, 8, -23, -33, -48, 54, 62, 53, 48, 61, 67, 
  5, -21, -12, -28, -72, -61, 20, 31, 64, 17, -27, -4, -56, -23, 64, -64, -17, 40, 43, 37, -62, -83, -34, -23, 7, -38, -47, 7, 71, 39, -62, 71, -15, -32, -54, -32, -48, 5, -59, 43, 55, 71, -67, -44, -61, 56, -35, 17, 40, 40, -59, -17, 30, -8, 44, -7, 13, -52, 72, 5, 32, 17, -38, -12, 48, -41, 66, 42, -1, 20, -47, -6, 38, -60, 16, 51, -78, 67, -37, 45, 57, -24, -19, 13, -27, 70, 68, 47, 72, -5, 34, -16, 17, 14, -64, 22, 8, -46, 35, 3, -12, 7, -44, -25, 5, 8, 71, -11, -3, -32, 66, -73, 21, 22, -4, 49, 64, 34, 43, 22, 0, -22, 26, 27, -5, -12, 17, 22, 37, -34, 9, 38, -66, -10, -29, 16, 89, 6, -74, -75, 41, 11, 35, 47, 44, -60, 0, 61, -29, -31, 44, -5, -1, 46, 9, 17, 30, -4, 44, -20, -61, 49, 13, 63, -4, -45, -31, 19, 70, 69, -65, -73, -6, 58, 8, -30, 3, -38, -6, 4, -26, 56, 3, 29, 44, -29, -62, -26, -11, -54, 69, -7, 16, 53, -11, 7, 2, -25, 33, -47, 56, 60, -47, 6, -41, 49, -68, 
  -4, -20, 75, -56, -25, 49, 30, -4, 17, 70, -40, -64, -10, -28, 20, 68, -41, 74, -61, 61, 55, -40, -26, -17, -36, -40, -12, -36, 52, -67, -58, -41, 11, -65, -33, 45, 71, 3, 40, -44, -14, -4, 69, 55, -3, -69, 65, -24, -16, -42, 61, -71, 20, 11, -35, -64, 72, -41, -65, 0, -17, 33, -72, 40, 59, 23, 49, 44, 78, 56, 67, -41, -25, -28, 2, -19, -42, -36, -23, -6, 58, -25, -54, -50, -53, 58, 9, 34, 5, 28, 43, -55, -68, -10, -53, 72, 65, 1, -36, 71, -5, -2, 50, 7, -46, -1, -11, -53, 50, 38, -64, 27, 63, 74, 67, -42, 70, 37, 23, 63, -40, -50, 9, 41, 57, 60, 49, -29, 51, 27, -45, 72, 20, -69, 89, -24, 77, -57, 91, 64, 33, -15, 85, 86, 3, -39, 71, -20, -52, 76, -56, -12, -37, -51, 43, -18, 47, -5, 34, -26, -65, -26, -30, 0, -36, 0, 69, 42, 1, -17, -65, -68, 23, 30, -10, -3, 8, 29, 64, -46, 55, -34, -2, 57, -56, 37, -7, -69, -54, 19, 71, -29, -64, 25, 10, 42, 20, 22, -11, -60, -16, -24, -67, 63, -37, 76, 50, 
  86, 1, -69, -17, -57, -54, -10, 17, -12, 62, -49, -43, 33, -48, 50, -16, 54, 41, 39, -29, 7, 51, -47, -25, 65, -12, -17, -10, -19, -22, -12, -32, -19, 14, -41, -47, 41, 59, 3, -29, 43, 65, -49, 49, 20, 29, 14, 41, 20, 1, -15, 62, 33, -8, 24, -57, -28, 28, 72, -31, -55, 32, -33, -53, 5, 40, 8, -85, -23, 62, 59, -40, 36, 49, -68, 59, 46, 36, 43, -83, 21, 16, 61, 7, -67, 57, -11, 44, 22, 39, 39, 47, -67, -49, 20, 24, -7, 56, 22, 60, 23, 32, 23, -55, -71, 25, 22, -50, 51, -22, 3, 43, 71, -44, 52, -4, -30, -22, 58, -58, -41, 25, 49, 13, 2, 24, 13, 38, 54, 28, -6, 1, -28, 34, -65, 0, -20, -26, 62, -38, -47, 14, -63, -42, 8, 56, 1, 15, 18, -26, -40, -39, -32, -53, -51, -50, 16, 65, -36, 41, -41, -1, 42, 43, 5, 20, 32, 26, -33, -25, 1, 21, -58, 73, 17, 54, -67, 53, 56, 71, -45, 64, -22, -18, -41, 22, -55, -44, 27, 68, 13, 40, 59, 39, 8, 3, 51, 24, -49, 5, -59, 30, -32, 46, 21, -44, 21, 
  -16, 42, -50, -15, 45, 49, 31, -60, -1, 20, 8, -43, -11, 32, -30, -26, -10, -41, -27, -61, 0, -46, 47, 1, 73, 61, -63, -54, 18, 8, -14, -71, 14, 44, -59, 62, -59, -44, 44, -30, 52, -23, -48, 30, 39, 1, 18, 50, -23, -23, -1, 53, 15, 41, -15, -45, -68, 27, 40, 20, -47, -1, 57, -12, 66, 59, -63, 38, 27, -13, -10, 2, -1, 58, -43, -11, -20, 40, 53, 7, 71, 21, 42, 26, 15, -32, -4, 22, -39, -13, -52, -75, -23, 45, -65, 17, -56, -56, 47, -72, 20, -49, 1, 0, -65, 8, 25, 37, 22, 42, 31, 69, -70, 59, 18, -31, 49, 35, 55, -64, -48, 21, -72, 25, -53, -26, 50, 47, -70, 23, -32, -51, 44, 20, 53, -8, -36, 44, 43, -74, -65, 77, 22, -63, 33, 65, -24, -19, -66, -29, 23, 0, 39, 46, 40, 49, 25, 77, 7, 46, 30, -37, -52, -54, 10, -71, 42, 42, 21, -11, -40, 45, 14, 66, -26, -32, -15, -24, -19, 63, 39, 12, 40, -74, -39, -45, -39, -22, 22, 56, 28, 40, -73, -63, 39, 45, 68, 62, 9, -69, -47, -68, 4, -49, 18, 14, -22, 
  45, -18, 14, -25, 70, -7, -10, -5, -55, -11, 68, 48, -13, 2, 68, 21, 33, 38, 65, 4, 77, -37, 4, 67, -25, -10, -46, -12, -62, -69, -21, -31, -50, 55, 34, 22, 29, 54, -62, 62, 33, -10, -11, -7, 5, -50, -56, -40, -34, 55, 64, -13, -60, -37, 6, 28, -38, -52, -5, 42, -52, -55, -61, -27, 7, -48, 6, -40, 38, -14, 66, 59, -57, -60, -8, 63, -23, -30, -21, -23, 29, -21, -30, 24, 24, -28, -37, -35, 23, -54, -20, -21, -28, 41, 28, -37, -30, 12, 39, -13, -25, 42, 62, -36, -2, -38, -40, -65, 67, -28, -13, 74, 40, 41, -64, 2, -37, -41, 11, -61, 21, -39, 20, 12, 3, 37, -66, 33, 52, 47, -50, -37, 36, 63, -3, -72, -51, -22, 69, -34, -54, -45, 44, 25, 55, -16, 46, 69, -21, -38, 29, -45, -20, 95, 69, 41, -45, -77, 44, -22, -27, -50, 68, -43, -65, -29, 20, 58, 21, -40, 60, 17, 62, -15, -64, 37, 61, -31, -51, 12, -66, 17, -31, 60, 50, 73, 62, 49, 36, 74, -10, -34, 4, -66, -44, 60, -52, 48, 15, -23, -33, 42, 7, 85, -57, -30, -21, 
  -45, -12, -39, 24, -65, -54, 61, -16, 7, 10, -40, 36, -48, -9, -79, 24, 63, -77, -28, -76, 38, -73, -57, -13, -60, 29, 3, 62, 19, -3, 30, -22, -56, 30, 54, 11, 48, -64, 56, 51, -14, -71, 24, 20, -42, -72, -36, -67, -8, -68, 65, -72, 6, 4, 66, 70, -45, -35, -45, -3, 53, -18, -59, 1, -29, -49, 25, -64, -63, 42, -60, -29, -84, 20, 19, -60, 33, -11, -52, -64, 48, -87, -23, 1, 56, 41, 17, -62, -14, -2, 0, -22, -69, -66, 4, 39, 17, -46, 8, 51, -55, 17, -12, -64, -38, 26, -55, 31, -27, -5, 51, 33, -14, -60, 48, 55, 45, 53, -33, 35, 47, -64, -32, 20, 54, -66, -63, -58, 59, -69, -3, 11, 40, -35, -57, 7, 54, -53, 83, 47, -7, -11, -37, 66, 27, -3, 19, 40, 32, -60, -39, 36, -67, -15, 4, -20, -69, -22, -66, 29, -78, 11, -56, -8, -2, -73, 22, -46, -9, -73, -58, -18, -57, -10, 65, -70, -22, 10, -65, 25, -7, 39, 43, -3, -39, -51, 5, 31, -25, 33, -50, 48, 18, 0, 34, 47, 51, -19, 40, -2, -60, -4, -18, -49, -65, -62, 43, 
  54, 41, 10, 31, -39, 54, 1, -20, 13, 59, 10, -43, -48, -61, 52, 64, -4, -50, 5, 70, -13, -22, 65, 37, -50, -50, -66, -25, -65, 8, 19, -66, -49, 50, -61, 43, -71, 23, 57, -3, 26, -64, -18, 71, 56, -38, 49, -28, 37, 33, 54, -54, -46, 33, 10, 3, -42, 57, 42, -25, 40, -28, 16, 57, 45, 1, 46, 24, 1, -72, 37, 76, 4, -18, 9, 26, -15, 47, -23, -28, -23, 1, -16, -5, -12, 84, 54, 1, -70, 15, -2, -18, -54, -54, -52, 14, -8, 14, 47, 39, -61, -48, -23, -24, -42, -14, 22, 63, -45, -39, -64, 44, 69, -32, 2, 70, 68, 35, -30, 51, 20, 31, -68, 44, 29, -8, -1, -53, 40, 36, -64, 44, 55, 66, 14, -2, -21, -11, -10, 4, -29, -70, -53, -3, 68, 33, 61, -29, -36, -50, -12, 3, 14, -55, 7, -62, 8, -55, -30, 44, 31, -31, -47, 42, -38, -3, -69, 30, -58, -66, -7, 7, 45, -44, 61, 11, -42, -38, 15, -18, -50, 66, -28, -43, -47, 28, 36, -67, -59, 0, 43, 49, -4, -8, 30, -13, -9, -5, 13, -30, 63, -16, -44, -28, -45, 62, 37, 
  78, -25, 24, -40, 92, 11, -48, 57, -59, 61, 70, 47, -11, 21, 34, -61, 70, 17, 67, 41, 70, -34, 43, -33, 11, 42, -13, 38, -18, 9, -16, -17, 22, 50, 14, -29, 33, 16, -42, 0, -40, 59, -25, 23, -65, 44, 28, -34, 35, -51, 5, 24, 71, 40, 10, -16, 38, 48, 12, 5, 64, -72, 22, -21, 34, 74, -19, -66, -10, -38, 37, 9, 38, 20, -36, -65, 76, -4, -27, -19, 34, -71, -64, -42, -17, -75, 82, -38, 83, -20, 58, 9, -71, 24, -68, 49, 0, 52, -50, -37, 34, -77, 19, 24, 26, -47, 49, 52, -71, 67, -17, 45, -5, -60, 72, -13, -12, 19, 10, 25, 62, -44, 61, 4, 0, -73, -10, -61, -61, 47, -73, -57, -38, -66, 30, 1, -22, -35, -15, -26, 62, 74, -32, 44, -57, 68, -55, 38, -23, 50, -69, -29, -66, 74, 64, -66, 13, 62, -67, -68, -16, 70, 8, -46, -45, -33, 42, -47, 6, 20, -46, 59, -68, -33, 35, -53, 14, -5, -30, -24, 42, 31, -39, -18, 41, 33, -17, 63, 12, 33, 39, -2, -32, 38, -44, 49, 13, 26, -18, -15, -15, 16, 31, -67, 69, 22, -47, 
  14, -20, -35, 5, -11, 37, -6, -35, -53, 64, 63, 21, -42, 68, -22, 74, 74, -39, -10, 68, 71, -4, 36, -23, -57, 68, 32, -20, 10, 15, -47, 1, 55, -23, 51, -14, -6, -12, 9, -30, 40, 64, -50, 67, 3, -57, -6, -39, 72, 3, 14, -16, 5, 2, 44, -23, 53, 48, -24, 40, -38, -20, -20, -38, -58, 20, 75, -43, -4, 48, 68, -15, -23, -29, 83, 58, -27, -38, 44, 13, 50, -61, 19, 0, 48, -58, 34, -46, -21, 57, -15, 60, 50, 72, 22, 23, 41, -30, 2, -26, -39, -47, 18, 57, -4, 41, 48, -44, 31, 37, 35, -15, -62, -6, -22, 70, -58, 18, -67, -72, 18, 11, 46, 14, 33, 41, 26, 63, 27, -26, 25, 34, -49, -4, 70, 61, -41, 56, 51, -4, -42, -44, 51, 68, 81, 76, -15, 18, -35, -31, 68, 20, 80, -32, -54, 25, -39, 78, -21, -40, 29, 51, 50, -46, -63, 3, -46, 72, 34, -44, 44, 28, 30, 67, -5, 0, -14, 25, 46, 15, 64, -61, -45, -1, 13, -63, -54, 59, -30, 18, -20, -68, -25, -17, 60, 33, 23, -4, -2, -24, -17, 9, 59, 23, -46, 61, 47, 
  -35, 49, 26, 59, -26, 31, 16, 68, -26, -68, 69, -60, -14, 49, -78, 1, -74, 35, 0, -54, -71, -40, -68, -61, 40, -44, -27, 60, 44, -47, 15, 50, 32, 8, 7, -64, -35, 38, -34, -28, -21, 42, 64, 45, 58, -31, -14, -52, -27, 30, 69, 14, 4, 63, -3, 67, -52, 18, -45, -19, 7, -64, -27, -14, 60, -1, 5, -36, 34, 16, 70, -48, 41, -21, 58, 50, -10, -16, -69, -17, -49, -26, -4, 11, -6, -55, -69, -63, -52, 57, -4, 44, 25, 11, -48, -50, -17, -7, -16, 8, 50, 69, -6, -48, -63, 27, -50, 70, 61, 10, -71, -6, -15, -54, -32, 47, 32, 13, -18, 46, 28, 44, -20, -22, 40, -59, -54, 5, 38, 13, -73, -66, -45, -55, 53, 65, -38, -52, 2, 0, -3, -77, 35, 31, 66, -67, 44, 29, -71, -30, -41, -19, 26, 20, -63, -8, 48, -2, 46, -11, 44, -24, 63, -21, -21, -9, 65, -18, 31, 49, -17, -71, 56, 51, -64, 9, 40, 68, 4, -44, -39, 35, 26, -37, -2, 29, 64, -71, -6, -9, -54, 47, 50, 1, 46, 60, -34, 19, -32, -40, 3, -39, 8, 57, 52, 7, -14, 
  72, -52, -63, 38, 61, -39, 24, 15, 0, 49, -4, -54, -73, -38, -67, 40, -40, -29, 46, -66, -14, 62, 55, 23, 14, 33, -30, -12, 11, -57, -21, -52, -57, -36, -69, -12, -46, 68, -25, -41, -30, 42, 65, 47, 12, 45, -25, -54, -14, -43, -35, -28, -20, -28, -42, 50, -29, -13, 34, 60, 72, -14, -1, -13, -22, -35, -6, 6, -60, -27, -53, -19, -63, 26, 55, -6, -78, 22, 40, -71, 14, -62, -53, -58, -31, 7, 51, -34, 57, -43, -17, -5, -65, 10, 29, -65, -23, 20, -56, 51, 9, -37, -47, -72, -2, -73, -75, -49, -32, 67, -4, -3, -40, 8, 22, -54, 5, -29, -22, -20, -8, -13, 21, -71, -1, 66, -14, 70, 7, -29, -84, -63, -34, -68, 53, 8, 45, -34, 113, 76, -25, 26, -40, -50, -48, 0, 43, -45, 23, -82, -37, 4, 53, -37, 57, -74, -2, -22, -27, -66, -1, -26, 59, 31, -22, -52, 27, -66, -53, 39, -45, 65, 11, -29, 25, 50, 27, -25, 20, -13, 54, -29, 20, -2, -62, -49, 71, 47, 3, 30, 42, 48, 44, 25, 23, 29, -10, -6, 49, 7, 31, 38, -42, -68, 64, 21, -21, 
  24, -64, -34, 36, -73, -17, -46, -15, -17, 32, -40, -3, 38, 44, -67, -52, 59, -20, -54, -52, -6, 37, 24, -42, -36, -39, -15, -33, 54, -45, -9, -49, 56, -29, 30, 61, -40, 32, -54, -9, -72, -11, 12, 22, -64, -32, -15, 17, 66, -47, 13, -18, -47, -3, 39, -54, 14, 36, -22, -70, 41, 30, 44, 29, -26, -24, -35, 31, -21, -77, -60, -17, -42, 57, 4, 15, 21, -56, 15, -13, 37, 50, 17, 4, 35, 17, -66, 49, -18, 29, 31, 14, -10, 61, -5, -21, -6, -35, 65, -72, -38, -68, -70, -51, -46, -28, -68, 56, 35, 42, 70, 35, -69, -61, 15, -40, 23, -21, -54, 17, -30, -47, -39, -63, 46, 9, 17, 54, -14, 14, 29, 65, 14, 5, -50, 6, -77, 36, -11, 44, 35, -16, -60, -56, -65, -35, 46, -11, -16, 43, 43, 28, 59, -8, -56, 16, -66, 7, 55, -23, 57, -43, -45, 14, 19, 48, -6, 13, -60, 48, 18, 58, 67, -66, 56, -50, 3, -41, 32, -17, 11, -47, 20, 20, -30, -31, -44, -40, -38, 36, -27, -72, -17, -30, 72, 48, 20, -58, 67, 72, -42, -67, -34, -29, 10, -56, -28, 
  66, -49, -18, 7, 11, 43, 29, 3, 33, 79, -46, 22, -9, 69, 53, 49, 65, 34, -9, 11, 16, -4, 37, -25, 50, 0, 60, -23, 54, -6, 52, -7, -15, 41, -24, 68, 8, -41, 25, -33, 42, -15, -14, 55, 3, 56, 34, -39, -49, -43, 53, 11, -20, 59, -62, 24, -63, -36, -17, 12, -39, 19, -44, 61, -5, 83, 89, 0, -18, -16, 40, -59, 55, 16, -8, 33, -34, -53, 11, 15, -73, 36, 24, 41, -43, -11, -20, 41, -60, -28, 45, 0, -47, 55, -42, -23, -11, -37, -35, -68, -24, 16, -4, 54, 70, 24, 46, 60, -57, -1, -24, -4, -69, 50, -50, -7, 59, 66, -47, 3, 74, 3, 48, -3, 44, -17, 76, -39, -19, 61, -32, -55, 55, -69, 25, 40, -80, 43, -39, -11, 30, 1, 68, -17, 71, 79, 55, 15, -54, 35, -63, -26, 75, -8, 80, -45, 66, 28, 50, -46, -29, 83, 8, 56, -47, -32, 23, 70, -12, -65, -4, 34, 38, 57, 18, 33, 6, -30, 31, -52, -54, -26, 56, 58, 8, 77, 35, 45, -38, 36, 67, 41, -21, 1, 69, 63, -26, -56, 20, -65, 10, -37, 24, 29, 17, 19, 60, 
  39, -61, 23, -35, 8, -12, -52, 75, 15, 75, 37, -52, 76, 67, 34, -32, 79, 72, 91, -27, 27, -48, -25, 0, -53, 42, 34, 63, -1, -60, -46, -41, 0, -34, 56, 56, -36, -15, 39, -39, -6, -18, -65, -71, 24, 69, -23, 57, 25, -25, -43, -33, -2, 4, -55, 59, -46, -25, -39, 29, -7, -65, 46, -57, 33, -64, 40, -21, -35, -3, 25, 17, -14, 35, 6, -71, 47, -77, -49, -71, 71, -57, -6, -62, 30, -46, 21, -44, -46, 42, -35, 31, 60, -40, -1, -74, -64, -12, 7, -24, -35, 38, -39, -4, -43, 13, 54, 46, 5, 52, -41, 9, -38, -61, 17, 72, -13, -68, -52, 33, -66, 31, 38, 72, -34, 33, 27, -67, -36, 5, -54, 46, -12, 2, -5, 17, -72, -11, -28, -53, 15, -30, -19, 10, -26, 23, -55, -75, -81, 1, 23, 45, 3, 33, -22, 28, -89, 19, 20, -32, -7, -32, -19, -5, -25, 46, -10, -63, 5, -19, -19, -11, 71, -67, 65, -15, -68, 58, -63, -62, 70, 4, 12, 30, -27, -64, -41, -61, -56, -57, -46, -20, -19, -56, 51, 4, -14, -14, -58, 20, -12, -56, 66, -90, 33, -48, -33, 
  -34, -40, 48, -36, 33, 9, -63, 38, -56, 9, 2, 28, -6, -1, -38, -45, 10, -75, -46, 8, 54, 34, 20, 13, 44, -10, -58, -34, 18, -29, 14, -46, -59, -38, -34, 0, -70, -41, -39, 67, 60, 61, 38, 22, -62, -42, -12, -30, 8, -51, -17, 50, -59, -29, 33, 9, -52, 20, 67, -45, -53, 48, 12, 1, 9, 4, -76, 29, -9, -64, 83, -16, 3, -7, 29, -4, 5, 12, -10, 72, 16, 67, -25, -16, -69, 15, 8, -32, -75, -53, 63, 44, 29, 16, -69, -10, 9, 1, 53, 43, -2, -28, 72, -2, 12, 41, -31, -31, 69, -61, 17, 63, 63, -70, -57, -26, -45, -54, -22, -24, -9, 63, 38, 54, 46, -19, -47, -3, -51, 42, -24, 36, -35, -28, 6, 46, -67, -26, 59, 43, -19, -67, 63, -10, 70, 59, 76, 75, -70, -19, -51, 30, -47, -43, 51, 34, 70, 63, -63, -78, -34, 23, 34, 31, -7, 64, -49, 19, 31, 5, -64, 36, 4, -68, 4, 60, -67, 2, -59, -54, -53, -30, 46, 31, 12, -17, -76, 25, 39, 11, -11, 31, 6, 13, -28, 17, -5, 12, -15, 3, 14, -53, 62, 0, -55, -29, 47, 
  -4, 6, 2, 49, 15, 22, 16, 64, -29, -57, 40, 44, 33, 51, -26, 47, 59, -54, 80, -59, 43, 21, 9, 52, -49, -28, -56, -6, -2, 66, -52, 18, -57, 24, -40, -36, -43, 7, -68, 8, 67, -45, 32, -1, 31, 10, -69, -54, -53, 56, -10, -65, -17, 55, -37, -56, -23, -19, 62, -2, -48, 24, 5, -28, 27, 41, -58, -6, 84, 46, 78, 18, 17, 50, 83, 2, -16, -13, -37, -75, -29, -56, 51, 25, 28, -82, 0, 21, -28, -79, 49, 51, 14, -55, -49, -17, -19, -46, -20, -26, 4, 20, 59, -63, -30, -65, -62, -13, 71, -64, -9, 42, -65, 0, -4, 36, 4, 43, -52, 53, -28, -41, -26, 14, -55, -44, -6, -28, 54, 69, 35, 16, -53, -27, -42, -82, 30, 18, -11, 16, 63, 8, 38, -41, 26, 13, -20, 55, -25, -43, -37, -5, -35, 9, 30, -65, -12, -12, -59, -13, -72, 38, 50, 50, -20, -27, -32, -5, -60, 16, 53, 55, 0, 3, -14, 61, 9, -64, -57, 52, 54, 16, 18, 70, 10, -5, -70, -5, 29, 25, 27, 30, -62, 52, 40, 16, -10, 4, 13, -70, 52, 2, 33, 4, 43, -48, -59, 
  -49, 18, 70, 39, 75, 22, -26, 54, 76, 48, -45, 51, -6, -17, -59, 73, -6, 26, -8, 10, -51, -23, 22, -61, 53, -54, -3, -34, -8, 81, 67, 10, 15, 72, 66, -23, 57, -44, 56, -50, -32, -22, -17, 34, 58, -21, -44, 63, -55, 3, -55, -25, 3, -1, 17, 8, -53, -35, -24, -32, 66, 1, -26, -33, 24, -23, -20, 30, -4, 75, 15, -55, -44, 13, -63, -29, 61, -8, 10, 2, -13, -73, -73, 32, -59, -62, 13, -54, 55, -40, -27, -32, 43, -32, 57, -31, 22, 61, -20, 64, -43, -10, 3, -21, 15, -20, -4, -48, -31, -64, -40, -63, -3, -52, 9, -3, 65, -50, 21, 0, 5, 68, -67, 22, -49, -41, 11, 35, 48, -59, -31, 25, -9, 29, -53, 36, 1, -22, 55, -14, -19, 15, -39, -19, -14, 25, -81, 4, 4, 1, 24, 56, 48, -65, -58, -21, 22, 31, -42, 43, -28, 14, 8, 27, -16, 49, -15, -39, -22, -40, -41, -33, -42, 36, -41, -23, 32, -48, 21, 32, 20, 0, 42, 13, 52, 53, 57, -71, 22, 4, 41, -38, 65, 43, -68, -5, 62, -5, 38, -10, 32, 68, -22, -42, 36, 9, 50, 
  81, 2, -50, -15, 42, -31, 10, 30, 42, -56, 62, 14, 11, -17, 69, 7, -58, -6, -47, 37, -46, 21, -38, -33, -56, -81, -36, -6, 36, -20, 12, -49, -4, 6, -53, 66, 57, 51, -7, -67, -40, -58, -26, 2, -21, -39, -47, 47, 27, 21, 53, 62, 53, -70, 60, 38, -49, -5, -14, -67, -46, 4, 59, 53, 8, 13, 57, -16, -13, 66, -18, -5, -50, -37, -38, 42, 25, 6, -17, -68, -38, -81, -15, -12, 30, -52, 32, 31, -29, 15, -17, -21, -50, 1, -34, -8, -70, 63, 41, -12, -22, 58, -17, -4, 11, 50, -62, -63, -73, -23, 13, -73, 7, -29, -50, -55, -61, 56, -10, 55, -52, -48, -60, -33, -29, 38, -21, -17, -31, -27, 50, -2, 47, -26, 17, -54, -53, -8, 45, 10, 31, -51, -21, -23, -24, 30, 2, 4, 16, 54, -73, -56, 15, -22, 33, 11, -67, 64, -76, 6, -71, 47, 52, -16, -52, 5, -30, -69, -63, -10, 11, -45, -61, 8, -3, 24, 26, -31, 27, 54, 15, -36, 75, 34, 14, 35, 44, 16, 19, 44, 1, -17, 69, 42, 16, 30, 3, -24, -50, 12, -42, -27, -24, -75, -44, -13, 4, 
  -59, -29, -8, -7, -39, 41, -45, -13, -74, 47, -40, -36, -75, 14, 34, -46, 19, 62, -1, 36, 53, -10, -51, 63, -31, 19, -21, 26, -10, -31, 49, -1, -71, 61, -64, -61, -66, 5, -23, -53, 21, -19, -33, 62, 12, 24, 72, 53, -26, -47, 33, 9, -60, 55, 66, 19, 57, 4, -45, 45, -11, 28, -44, -16, -42, -14, -36, 7, -66, 46, -69, 16, -41, 28, -64, -7, 18, -42, 0, -46, 72, 90, 28, 24, 37, 16, 26, 46, 60, 16, -61, 21, 78, 49, -5, -4, 23, -39, 28, -9, -2, 9, 29, 66, 36, 14, -29, -45, 19, -38, 5, -61, 67, 48, 37, -40, -57, 13, -48, 31, 65, -2, 57, -33, 30, 9, -71, 54, -59, 44, -46, -81, 3, -43, 30, 56, 89, 13, 50, 8, -31, -5, 49, -9, 18, -29, 68, -9, 84, -14, 19, 38, -3, 35, 52, 13, 16, -81, -46, -30, -50, -19, 34, -1, -24, -47, 50, -61, -6, -43, 14, 66, -37, -59, 38, -43, 62, 73, -21, 0, 7, -64, 59, 20, -51, -50, 67, 25, -11, 65, 16, -38, 68, 9, 27, -55, -38, -10, -51, 60, -63, -6, -23, -28, 66, -1, 67, 
  -11, 61, 34, -64, 25, 61, -61, -15, -30, -67, -11, 0, -40, 54, 55, 12, 44, 35, 35, 30, -56, 2, -54, 69, 59, 57, -25, 29, -1, -64, 34, 8, -54, 4, 45, 22, 63, -5, 5, 11, -37, -12, 26, 12, 23, -5, 48, 45, -2, 65, 38, 56, -1, -7, 53, -38, 68, 57, -36, -19, 22, 34, -29, 64, 56, 24, -5, -37, -11, -52, 42, 16, 78, 2, 51, -66, -4, 14, 23, -62, -8, 73, 12, 71, 59, 59, 66, 45, 65, -53, -69, -61, 1, -13, -30, -1, -50, 21, -57, 34, -47, -64, -56, 35, -28, -49, -10, -57, 66, 47, -84, -62, -51, -21, -30, -2, -6, 31, -26, 39, -48, -3, -68, 50, -42, -59, -30, 71, 28, 24, -11, 16, -67, 1, 27, -19, 22, 54, -34, 60, 31, -24, 27, -57, -54, -58, 74, 39, -12, -61, -52, 72, -58, -7, -45, -25, 44, 35, -68, 51, 65, 33, 67, -3, 44, -28, -73, -65, -38, 16, -45, 53, -24, 66, -8, 32, -56, -5, 30, 57, -6, -1, -57, 20, 5, -28, -60, -41, -28, 63, -1, -31, -20, 10, 55, -33, -10, 27, 37, 28, 32, 9, -1, 60, 8, -31, 39, 
  -20, 35, -8, 49, -30, 20, -38, 34, 40, 29, -30, -58, 14, 35, -28, 51, -34, -4, 54, -41, -57, -48, 40, -22, 13, -47, 44, 29, 9, -52, 65, 8, -72, -63, -11, -39, -54, 42, -53, -48, 26, 45, -51, 23, -55, 10, -42, -43, 14, 41, -39, 55, 3, 17, -12, 21, -15, 11, 4, -17, 15, 38, 52, -30, -63, 1, -11, 37, 53, 86, -42, -42, 35, -26, -27, -56, -66, -42, 69, 72, 13, 57, 0, -32, 49, -45, -14, -74, -72, -11, 32, 18, 25, -73, -6, 1, -33, 48, -67, -25, 8, -49, -27, -14, -24, -46, 32, 66, 34, -3, -7, -35, 54, 55, 49, 24, -36, 26, 44, -41, 4, -38, -57, -48, -31, -67, -1, 54, -45, 42, 5, -63, 32, 69, 41, -19, -2, -9, 34, 26, 30, -9, 2, -42, 62, -42, 43, 57, 64, -71, 13, 14, 63, -65, -38, 20, 17, -45, 30, -61, 64, 18, -6, -67, 7, -69, 22, -57, 73, 61, -39, -21, 54, -3, -51, -2, -59, -47, 8, -40, 21, 11, -68, 23, 49, 71, -59, 14, -51, 53, -53, -67, -30, -64, -51, -47, 6, -26, -52, 46, 44, 61, 61, -68, 70, -57, 17, 
  80, 39, -34, 47, 35, 12, -9, 12, 4, 38, -54, -61, -9, 17, 45, -58, -7, 61, 53, 67, 42, -15, -1, 48, 68, 0, -3, -46, -27, 45, 29, 3, -56, 28, -53, 8, 53, 42, 9, -52, -54, -68, 0, -38, 0, 25, 59, 52, 60, 31, 48, -9, 41, 12, -39, -16, 20, 13, 68, -45, 10, 11, 55, 20, -26, 60, -41, -27, 55, 47, 17, 0, -63, -59, 53, 34, -72, 59, 31, 44, 15, -10, 2, 5, -59, 12, -37, 30, -32, 6, -22, 11, -44, -35, 68, 38, 51, 54, -24, -58, -21, -43, 27, 32, 14, -61, -62, 68, -45, -34, 42, -46, 38, -71, 56, -43, 37, 33, -61, 59, 65, 42, 14, -50, 19, 15, 34, 66, -57, -45, -66, 66, 5, -34, -9, 22, -71, 53, 17, 40, 39, -33, 30, 41, -4, -75, -80, -51, -52, 10, -11, -46, 45, -15, -59, -36, 68, 17, 45, -42, 1, -66, 35, -59, 48, -53, -37, -3, -65, -13, 19, -25, 23, 52, 32, 50, 52, 64, -65, -62, 25, -35, -46, 26, 39, -68, -47, -57, -49, 44, 11, -71, 5, -51, -59, -72, -18, 12, -56, -27, 66, 58, 44, -28, -52, -5, 15, 
  0, 13, -48, 59, -15, -11, -71, 43, -11, -57, 0, 19, -12, -37, 24, 28, 53, -39, -22, 15, -36, -67, -9, 62, 36, 28, -23, -9, 15, 60, 7, -49, 28, 56, 18, 72, 34, -57, -41, -15, -36, 7, 61, -15, 19, 25, -31, -55, 6, 66, 2, 32, -58, 18, 29, -62, -46, -11, 27, 53, -29, -47, 69, -46, -30, 43, -62, 63, -6, 70, 53, 58, 38, -65, 58, 60, -36, -25, -39, -28, -49, -60, -82, -51, -47, 31, -5, -41, -47, 1, 72, -42, 38, 29, 63, 42, 4, 58, -13, -68, 25, -28, -33, -22, 17, -62, 64, -8, -44, -25, 54, -64, -17, -42, 42, 43, 29, 65, -40, 28, -72, -44, -24, 1, -50, -75, 8, 48, -1, -10, -69, -28, -27, -50, 64, -4, -62, 41, 21, 26, 59, 17, -14, 71, -10, 31, -29, -14, -28, -1, -7, -34, 44, -63, -82, -54, -45, 14, -51, -33, 52, 22, 56, -67, -66, -7, -14, -25, -31, 54, -1, 66, -40, -25, -1, 0, 27, 68, -47, 37, -41, -17, 42, -67, -62, -62, -44, 49, 18, 10, -10, 2, -15, 37, 42, 2, 57, 57, -6, 12, -10, 32, 32, -28, -17, 19, -88, 
  24, 53, -33, 66, 63, 26, -44, 20, -11, -12, 39, 53, 32, -24, 50, 51, -58, 21, -3, 45, 3, 30, -13, 14, 46, 66, -46, 4, -58, 57, 14, -55, -15, -56, -35, 46, -70, 1, 61, -53, 52, -37, -66, -59, 35, 63, 51, -21, 36, -66, -22, -27, -48, -42, 60, -69, 39, 17, 52, -13, -18, 53, 59, -13, -8, 6, -47, 26, -21, 35, 31, 57, -9, 68, 17, -47, 55, -39, -46, -21, -7, 39, 68, 34, -61, -67, -53, 44, -24, 43, -33, 74, 21, -3, 68, 26, -47, 39, 8, 46, -20, 3, -70, 50, 50, 63, 69, 14, 36, 55, 10, 60, 55, 28, 20, 32, 38, -60, -38, 34, 1, 3, -27, -22, 7, -52, -41, -37, -41, -57, 70, 26, -27, -33, -33, 18, 70, 5, -30, -60, 7, -37, 41, -47, -22, -38, 74, -13, -36, 13, 57, -32, 55, 58, -55, -4, 13, -58, -47, -32, 13, -51, 14, 30, 49, -1, -41, -34, -11, 10, -41, 28, 19, 56, 42, 25, 70, 38, 75, -53, -59, 36, -5, 42, -46, -62, 54, -57, 21, -20, 63, 64, 21, 38, -21, 14, 52, 58, -54, 22, 27, 18, -26, -16, 40, 5, 17, 
  37, -13, -22, 22, -42, 17, -14, 12, -37, 48, 70, 62, 68, 18, -35, -61, 12, 2, -42, -20, 52, -18, 31, -32, -12, 70, -42, 34, 72, 45, 46, -3, 35, -20, -59, 58, -70, 38, 13, 70, 18, 48, -16, 22, -15, 47, 61, 55, 11, 53, -25, 13, 19, 8, -3, -68, 46, 61, 61, -59, 10, 26, -65, -63, -65, -33, -61, -51, -6, 64, 0, 33, 37, -21, -23, -18, -1, -12, -10, -45, -12, 5, 42, 31, -35, 61, 39, 1, 4, -54, 24, 44, 3, -36, -6, -69, 32, 48, 27, -33, 1, 3, 21, -23, -6, 22, 38, 25, 66, 8, -31, -50, -37, -23, 60, -3, -49, -77, -38, 20, -10, 11, -38, -32, -47, 11, -26, 65, 11, 70, 2, 40, 64, 11, -83, 22, -24, 13, 22, -37, 27, -5, -69, 14, -44, -69, 7, 35, -15, -31, -32, -44, -62, 48, 0, 6, -74, 44, 11, -68, 15, 38, 59, 59, -3, -67, 21, 30, 4, 21, -72, 15, -64, 69, 19, 26, 29, 13, -26, -28, -15, 46, 28, 28, 69, 23, 58, -34, 55, 67, -67, 59, -42, 21, -6, 42, 66, 60, 21, -28, -2, -3, 31, -68, 46, -31, 49, 
  -40, 17, -3, 45, -39, 67, 15, 36, 53, 4, 47, 21, -24, 36, 28, 48, 6, 35, 13, 58, 37, -4, 66, 27, 2, 67, 31, -77, -11, 9, -16, -58, 71, 8, -53, 60, 72, -54, -25, 50, -51, -1, 35, -43, -48, 55, 29, 5, -35, 43, 29, 70, -11, -63, -25, -44, -7, -48, -39, 66, 56, 6, 17, 42, -56, -24, 48, -29, -45, 47, -58, -47, 24, 30, -15, 62, -11, -40, -30, 62, -61, 14, 8, 66, 38, 9, 55, 4, 22, -57, 13, -66, 4, 71, -31, 63, 51, 47, 54, 12, 49, 61, -26, 1, -19, 13, 26, 4, -65, 41, 7, 24, -4, 11, -15, 6, 66, -47, -35, 58, 7, 64, 45, -12, 45, 51, -27, 24, -7, -55, -56, 18, -14, -3, 38, -7, 78, -25, 81, 45, -68, 19, 13, -76, 17, -38, 7, -36, 3, 52, 52, 34, -51, 44, 38, -34, -18, 29, 85, 49, 10, -23, -3, 49, -12, 58, -51, 67, 11, 20, -38, 2, -68, 2, -7, -69, -46, -4, -20, -35, 71, -68, 46, 2, -27, 25, 71, -7, -4, 6, 46, -5, -1, -26, -67, -15, -42, -46, -29, 52, -28, 3, -16, 25, 62, 43, 5, 
  79, 9, 63, 20, 21, -21, 44, -1, -71, -14, -55, -24, 22, 32, 43, -37, 44, 47, -18, 30, 23, -37, 41, -40, -54, -22, -24, -39, 31, 1, 51, -69, -47, -23, -49, -17, -62, -13, -10, -54, -30, 29, -35, -52, -65, -30, -21, -48, -34, 4, -54, 64, 56, -48, 1, 26, 1, 14, -51, -55, -52, 46, -40, -12, -66, -3, 48, -43, -30, 2, -65, -27, 56, -56, 15, 27, -77, 48, 31, -43, 32, 39, -74, -24, -42, 50, 51, -27, -11, 59, 31, 4, -48, 29, -29, 25, 49, -10, -42, 64, -67, 24, 23, 45, 13, 28, 0, -22, 53, -39, -61, -8, 1, 51, 30, 67, 61, -2, -38, 21, 23, 25, 0, 58, 1, 41, 56, -48, 50, -45, -44, 17, 39, -76, -58, -20, 21, 31, -21, 53, 29, -5, -88, 19, 41, -46, -71, 2, -66, 20, -63, 50, 5, -26, -24, -11, -55, 11, -66, 6, 20, 40, -17, -21, 52, 9, 34, 48, -69, -20, -23, 35, 72, 51, -56, 60, 42, 16, -36, 17, 16, 65, 35, 7, 61, 18, 33, 62, -41, 34, 64, -14, 5, 39, 46, -15, -27, -23, 13, -71, -1, 46, -65, -110, 21, -40, -78, 
  24, -14, -54, 0, -13, 63, -71, 38, 42, -62, 46, -14, -17, 30, -25, 48, 14, -20, -63, -60, 62, 6, -17, -10, 0, 41, -53, 15, 52, -29, 67, 71, 38, -2, 4, -4, 49, -53, -22, -57, -23, -43, 17, 18, -68, 50, -57, -40, -66, -36, 54, 60, -23, 21, 5, 9, -27, 59, 17, -43, 56, 70, -40, -51, -61, 55, -30, -71, 42, -1, -33, 15, -32, -24, -24, 9, 21, -53, 58, -51, 36, 40, 36, 10, 53, -51, -27, -9, 5, -22, -63, -7, 67, -2, 62, -52, -43, 49, 71, 42, -57, 54, -61, 30, 29, 54, -22, -69, 7, -57, -29, 48, -56, -20, 18, 37, -24, 59, 4, -8, 63, -3, 48, -58, -50, -50, 52, 24, -20, 3, -65, 51, -56, 32, 3, -26, 79, 27, -74, 24, 11, 67, -30, -47, -42, 42, 66, 77, -55, -62, 59, -60, 75, -68, 19, 52, -51, -8, 60, -54, 51, -53, 3, 13, 0, -67, -43, 72, 25, 71, 49, -10, 77, 59, 23, 15, -69, -26, -21, 4, 51, 2, 47, -4, -72, -26, 10, -44, 18, -18, -40, -104, -51, -69, -34, -3, -35, -55, 5, 16, 38, -18, 4, 54, -2, -35, 24, 
  10, -6, 57, 54, 18, -27, -3, -13, -51, 51, -58, -64, -47, -77, -10, 35, 30, 39, 51, -7, -73, 24, -9, 58, 53, 60, -46, 15, 27, 69, 13, -39, 65, 11, 41, -41, -2, -71, -13, -1, -27, 58, -71, -69, -37, 2, -57, 16, 52, 2, 11, 39, 11, 23, -57, -50, 3, 10, 15, -22, -66, -29, -54, 62, 6, -54, 34, -8, 71, 48, 37, -24, 5, 37, -28, -58, -45, -27, 35, 6, -15, -66, -12, 53, -31, 41, 17, 25, -35, -20, 61, 1, -18, 4, -50, 60, 13, -52, 47, -27, -56, -69, 11, -59, -60, 48, 13, -42, -39, -42, -67, -23, -29, -33, -27, 26, -5, -67, 64, 11, 47, 5, 35, -24, 36, 27, 39, 42, 5, 47, -15, -16, 36, 44, -47, 71, -50, -29, 12, -29, 47, 13, 39, -13, 63, 50, 13, 35, -59, -28, 60, -4, 17, 25, 28, -28, 50, -67, 5, -11, -35, -51, -63, 10, 35, -25, 41, -27, 28, -1, 38, 49, -42, -40, 18, 47, 32, 29, -70, 11, -65, 29, -38, 6, -2, -42, 59, 9, 52, -32, -7, -9, 38, -67, -25, 21, 18, 26, -67, -52, 3, -78, 45, -62, 8, -36, 32, 
  24, -39, -20, 65, -12, -30, 17, -39, 42, 51, -54, -1, 14, 79, -16, -44, 60, 45, -51, 5, -5, 12, 72, -42, -61, 30, 1, 50, 61, -37, 24, 24, 44, -5, 25, 47, 15, -15, 47, -56, -47, 0, 65, -54, -59, 46, 22, -21, 39, -45, 47, -51, -6, 43, -57, 62, -67, 32, 59, 3, 13, -64, 27, -2, -53, -39, 70, 12, 0, -53, 52, 55, -26, 57, 12, -75, -10, 67, 63, 66, -11, 30, 55, -61, -55, -20, 49, 7, 39, -54, -46, 62, -3, 7, 6, 27, -13, 51, -9, 55, -72, 10, -16, -58, 21, 15, 15, 17, 64, -59, 0, -50, -55, 22, 36, -5, 39, -40, 56, -45, 36, 23, 27, 11, -46, -7, 24, -57, -8, 16, -50, -26, -38, 11, 12, 9, -12, -37, 0, 51, -40, 63, -69, -11, -32, 65, -6, -66, 68, 47, -43, 21, -10, -15, -30, 21, -70, 37, -73, 37, -3, 1, 32, 2, 43, -27, 58, 26, 37, 58, 64, 2, 55, 2, -45, 24, 60, 29, 4, 52, -43, -55, -54, -51, -36, -34, 68, -20, -27, -25, -25, -13, -1, 38, 1, -69, -16, 34, 50, -15, -36, 52, 34, -64, -4, 16, -57, 
  14, -14, -18, -22, -66, -3, 64, 11, 62, 51, 6, -10, 29, 56, 33, -51, -52, 46, 53, 16, -47, -37, 62, -55, -14, -55, -51, 12, 30, -62, -36, 11, 18, -3, -47, 54, 60, 5, 31, 44, -33, -14, -56, 52, 35, -18, 26, -68, -37, 25, -48, 59, -34, 9, -7, -64, -2, 68, 16, 12, 45, 33, -70, 33, 27, -59, -56, -33, -52, 59, -7, 55, 32, -49, 47, -69, 82, -56, -81, 24, 53, -68, 50, 31, -62, 13, -1, 6, -66, -1, -24, 16, -28, -53, -8, 54, -69, -26, -47, -29, -54, 13, 11, 5, -48, 58, 62, 56, 8, -63, 52, 55, -21, -27, 26, -19, 9, 27, -56, -43, 27, 8, 23, -51, -61, 60, -56, 3, 63, -18, -46, 53, 20, 48, 66, -10, 0, -1, -38, 8, 16, -63, 76, 33, -42, 67, -13, 13, 4, 83, -63, 54, 37, 28, 11, -9, -80, -57, 2, 9, -66, -50, -45, 45, 70, 2, -53, -30, 14, -65, 44, 60, -67, 12, 68, -23, 47, -9, -51, -23, 29, -85, -26, 13, -37, 6, -27, 39, -25, 13, -28, -44, 59, -60, -28, -12, 43, -60, -68, -64, -40, 16, -69, -21, 46, 72, 26, 
  36, 67, -9, 59, 5, 57, 77, 44, -70, 66, -17, 69, -24, 61, 73, -53, 9, -58, 3, -41, -10, 54, -4, 31, 24, -12, 73, 2, 41, -17, 72, -68, -20, 57, 43, -61, -13, -22, 7, 2, 39, 11, 28, -70, -7, -5, 62, -1, 18, -57, 46, -45, -71, 33, -63, -62, -29, -55, -43, 19, 25, -14, 4, -64, 51, 12, 33, 47, -33, 21, -51, -30, 51, -40, 49, -35, -31, 17, -37, -52, 17, -64, -51, -55, 35, 28, -20, 51, -26, -52, -53, 12, -53, 15, 36, -2, -47, 38, 4, 67, 59, -18, 48, 20, -2, 11, -2, 44, -37, 64, -35, 14, 64, -27, -31, 35, -69, -13, -50, -19, -11, 64, -40, 44, -3, 66, -42, -54, 75, -8, 44, 1, -33, 51, 50, -34, -49, 69, -28, 11, -26, -15, -60, 23, -33, -7, -35, -45, 41, 37, 30, 56, -47, 29, 11, 4, -52, -5, 28, -32, 0, 51, 0, 0, 37, 66, 64, 1, 70, 6, 19, 71, 62, 43, -38, 25, 49, 47, 17, 8, 51, 59, -49, -28, -5, 26, -47, -24, 5, -22, -43, 18, -22, 47, -37, 31, 59, 15, 55, -6, 13, 8, 36, -67, 1, -31, -21, 
  16, 11, -62, -66, -44, 67, 68, -11, 17, 25, 8, -29, -39, 53, -60, 13, 21, 30, 52, 23, -41, -55, 0, -7, 36, 64, -48, 49, 41, -40, 61, 32, -9, 57, 18, 20, 28, -49, 42, -41, 6, -59, 3, 26, 37, 15, -45, -70, -48, 34, -46, 61, -10, -55, -62, 25, -60, 48, 42, -6, 52, 9, 61, -15, -37, -15, 41, 22, -6, 0, 59, 3, 75, -8, 48, 72, 61, 63, -37, -5, -70, 67, -12, 19, 73, 73, -60, 11, -78, -16, 17, -39, 67, 0, -56, -51, -75, 57, -12, 26, 51, 31, -59, -47, -73, 16, 3, 46, 26, -59, 11, -10, -61, -1, 44, -46, 5, -48, -9, 5, -59, -32, 25, -47, -59, 7, 42, -1, 6, 0, -18, 5, -57, -34, 23, 45, 55, 40, 12, -5, -10, -22, -4, -20, 75, 77, 36, 46, -14, 28, 46, 51, 82, -10, -24, -2, -12, -79, -40, -47, 44, -49, -27, 30, 38, -54, 11, -12, -58, -43, -24, -68, -55, 12, -17, -32, 22, 53, -55, -38, 53, 34, 14, -19, -14, -40, -26, 18, 45, 36, 4, 9, -40, 16, 37, 55, -69, 28, -51, -41, 13, 67, -63, 66, -12, 44, -18, 
  -11, 40, -30, 13, 51, 32, -22, 3, 36, -13, -33, 70, -22, 18, -36, 12, -47, -10, -20, -15, -5, 57, -37, 20, 67, 9, -38, 65, -7, 38, -18, 56, -2, -56, 4, 67, 27, 3, 70, -37, 53, -35, -50, 30, 21, 43, 61, -36, 64, 10, 50, 56, -27, 39, -42, 25, -47, 61, -30, -19, -67, -44, 32, -63, 17, 48, -23, -32, -81, -13, 50, -39, 28, 17, -28, 7, -26, 55, -24, 37, 24, 17, -62, 56, 69, -47, -51, 64, -34, -68, 52, -15, -19, 47, -13, -60, -41, -53, -41, -70, -29, 21, -48, 4, 34, 2, -46, -1, -25, -6, -70, 10, -45, 19, -62, 31, -46, -28, 9, -71, 57, 6, 6, -3, -27, 29, 40, -72, -32, -7, 71, 52, 14, 29, -66, 53, 31, 16, -67, 64, -14, 28, -16, -21, -64, -33, -71, -4, -5, -80, 31, -29, 50, -7, 31, 49, 9, -35, 13, -19, 58, 2, 37, -2, 23, 73, -6, -6, -39, 53, 58, 1, 13, -13, -28, -67, 58, -50, 44, 71, 65, -9, 28, 7, 4, 29, -56, 28, -34, 3, 20, -18, 29, -31, -59, 52, 48, -48, 62, -54, 26, 20, -31, -48, -67, 6, 14, 
  -32, 1, -12, -37, -69, 12, 26, -9, 47, 41, 47, 13, -21, 41, -9, 17, -31, -39, 23, -41, 23, 59, 36, -24, -68, -45, -7, -15, 52, -53, 71, -17, 40, -26, -36, -49, -25, -50, 37, 42, -12, -53, -13, 52, -11, -63, -13, -69, 68, 60, 0, -9, 49, 55, -9, 50, -16, 41, 27, 46, 62, 28, -5, 54, 16, 41, 12, -9, 15, -73, -11, -8, 4, -40, 62, -41, -11, 28, 7, -30, -5, 18, -32, -10, 30, -10, -57, 53, 15, 62, -46, 39, 76, 56, 45, 73, -28, -15, -17, -10, -6, -65, 49, 35, 37, -24, -1, -54, 69, -2, -56, 70, -1, -30, 6, 51, 16, 40, 62, 45, 26, -65, 3, -19, -67, -8, -26, 34, -24, 47, 6, -53, 40, -17, 44, 6, -6, -1, -30, -50, 14, -33, -34, -63, 3, -22, -65, -67, 37, 12, 46, 53, -42, -76, -76, 61, 46, 5, -71, 18, 31, -13, 14, 10, -61, 54, 31, 21, 15, 27, -18, 9, 32, 34, -49, 60, 44, -41, -74, 16, -23, -71, 42, 5, -39, 34, 42, -50, -22, -72, -32, 20, -42, 14, -32, 23, -9, 40, 5, -11, -62, 4, -17, 1, -37, -74, -8, 
  -61, 57, -24, 43, 15, 26, -59, -39, 54, -1, -36, -2, -49, -33, -29, 24, -34, 72, -56, -51, -60, 24, 48, 70, -40, -49, -32, 43, 50, 7, 28, -23, 48, -65, -56, 35, 34, 57, 35, 59, 27, -39, -59, -12, -24, 72, 2, 67, 17, 2, 32, 64, 35, -69, -7, -63, 58, -63, 28, -34, 4, -63, -2, -38, -64, -84, -51, 7, -20, 64, -35, -33, 60, -55, 31, -7, -59, -19, 38, 2, -8, -69, -29, -27, 58, -8, 77, -47, -49, -42, -1, -4, 18, 4, -59, -1, -30, -23, -4, -24, 22, 53, 46, 61, 34, -68, -7, -42, 41, 31, 74, -59, 59, 39, -16, 29, 3, 30, -3, 31, 33, 4, 33, 18, 12, -27, 32, -17, 72, 57, 44, -25, -50, -36, 20, 4, 36, 67, -7, 16, 1, 60, -14, -62, -36, 1, 65, 26, -21, 28, 72, -54, 69, -66, 15, -35, 14, -30, -12, -35, 31, 70, -49, 11, -31, -44, -10, 35, -30, -30, 18, 35, 12, -67, 70, -28, 63, -23, -55, -4, -28, 31, -47, 46, 61, -25, 27, -60, -74, 9, 61, 42, -32, -17, -36, -17, -72, 52, -62, 14, -77, 47, -75, 49, 9, 15, 11, 
  44, 11, 32, -58, -5, 62, 44, 19, -36, -25, 23, -45, -27, -5, -49, 36, 43, -17, -55, 67, 63, 23, 19, 26, -63, 55, 31, 56, -14, 49, -23, -16, -11, 58, 41, -54, -63, 67, -41, -4, -13, 45, 66, -24, -12, -15, -36, -30, 12, 11, 37, -10, -72, 7, 60, 50, 53, 34, -19, -57, 0, -11, 1, 46, -23, 5, 56, 33, 45, 8, 20, 21, 19, 46, -9, -36, 27, 61, -61, 42, -57, -46, 8, -2, -34, 21, -13, -60, -39, 20, -25, -9, 41, -6, 41, 11, 2, -41, 16, -1, 39, -8, -47, 67, 65, 65, -68, -51, 3, -15, 21, 53, 23, -11, 35, -46, 3, -46, -37, 51, -13, -69, 21, 43, 12, -52, -3, -2, 20, 14, 4, 50, -34, 19, -65, 6, 28, -65, 9, 48, -73, 39, 11, 31, 31, -15, 14, -34, -65, 17, 26, 10, -36, 29, -39, -22, 17, 20, 41, -42, 7, 33, 26, 71, 69, -17, 41, -32, 4, -26, -35, -41, -40, -36, 23, 45, -10, -11, 52, 72, 10, -25, 42, -8, 68, 8, 11, -27, 72, 71, 58, -24, 18, -30, 10, -21, -41, -43, 11, 67, -54, 35, 34, -86, 21, -10, 15, 
  -73, -66, -51, -51, -41, 48, 52, 38, -67, -13, -56, -38, -52, -30, -64, 43, 12, -61, 3, -9, 11, -40, -34, 36, -42, 25, 65, -20, 69, -51, 2, 52, 26, 26, -53, 5, -17, -49, 21, -33, -21, -66, -37, -14, 38, -5, 44, 70, -55, -36, -48, -15, 39, -59, -10, 57, 20, -18, 42, -61, 34, -35, -31, -6, -62, 77, -56, -41, -12, -22, -15, -15, 65, -70, 21, -71, 2, -16, 21, 20, 33, 10, 1, 8, -55, 2, 34, 69, 1, -68, 51, 12, -67, 75, 70, -9, 6, -44, 30, 72, -58, 40, 39, 52, 39, 7, -63, -5, 15, -10, -62, 63, 10, 24, -48, 6, 29, 67, -12, 56, 3, -18, -15, 4, 0, 52, 7, -56, 10, 58, -68, 4, 28, 42, 38, -48, -41, -58, -27, -37, -5, -59, -8, 30, 3, -54, -42, -52, -46, -32, -17, 9, -14, 46, -9, 51, 11, 8, 22, -56, 56, 31, -65, -8, 2, -56, 8, -67, -24, 9, 66, -7, -1, -54, 6, -45, -56, -57, 10, 65, -60, 63, -72, -62, 7, -44, -67, -9, 55, -28, 45, 53, -50, -30, 35, 36, 7, 26, 5, -68, 19, -22, 53, 76, 4, 7, 12, 
  64, 40, 33, -63, 23, 22, -5, -37, 17, -75, -64, 16, -68, -60, -17, -62, 5, -9, -40, -5, -44, -55, -3, 18, -61, 28, -28, 36, -47, 25, -55, -17, -69, -65, 33, -37, 3, 72, 58, -59, 15, 60, 68, -41, -56, 2, -48, -68, 67, 57, 59, -35, -19, -41, -27, -16, -9, 63, 18, 44, 9, 16, 14, -72, 62, 37, -12, -33, 30, -63, -11, -29, -61, 28, 57, -20, 63, 17, 4, 1, 56, 37, 72, -33, 47, -37, 44, 7, -18, 66, 38, -7, 30, -54, -24, -9, -78, 28, -52, -66, -52, -11, -27, 4, -23, 0, 65, 15, -15, 11, 3, 35, 59, 21, -3, 23, -1, -70, -65, 26, 1, 33, -39, 49, -70, -44, -22, -53, -55, -23, 57, -12, 16, 29, 57, -45, 49, 34, -40, 51, 51, 39, -27, -18, -28, -67, 2, 5, -6, 52, 54, -23, -19, -19, -59, -52, 18, 61, -66, -71, -46, -36, 11, -22, -21, 50, -40, -51, 13, -46, 30, -70, 1, 58, 26, -56, -47, 7, 58, -39, 12, 65, -7, 12, -59, 38, -7, -3, -54, 6, 45, -32, 1, -61, 18, 64, 22, -29, 41, -43, 71, 70, 61, 36, 51, 53, 6, 
  15, -52, 5, 17, -56, -43, -31, -48, 68, 64, 60, 58, -12, 72, -5, -42, 71, 50, -15, -1, -65, 17, 30, 18, -48, 63, 50, -52, -36, 16, 17, 31, -35, 70, -69, 11, 7, -38, -58, -40, 2, 65, 43, -50, -44, 37, 32, 66, 37, 29, -24, -11, 50, -54, -46, 60, 68, 20, -4, -56, -18, -46, -61, -50, 54, -14, -17, -3, -29, 4, 31, -84, -49, -18, -65, 20, 48, -9, -45, -1, 47, -50, -47, -64, 6, 27, -39, 23, 3, 47, 10, 58, -13, -75, 26, -71, -70, 38, -80, -57, 45, -58, -29, 1, -21, -11, 45, -38, -4, -75, -57, 7, -42, 19, 54, 52, 11, -56, 56, 17, 38, 18, 40, -61, 33, -40, -76, 2, -17, 35, -17, 22, -70, 33, 39, -89, -53, -66, -2, 45, -32, 67, -66, 36, -22, 64, -27, 58, -8, 40, -43, 27, -61, 45, -49, 60, -18, -43, 43, 35, 42, 8, -12, -21, -59, 14, -30, -27, -55, -27, 61, 60, -23, -21, 10, -31, 25, -48, -2, -74, -54, -24, -55, -46, 5, -16, -41, 40, -11, 54, 50, 38, -52, -50, -1, -4, 28, 53, 3, 3, -6, 52, -47, -91, 35, 28, -37, 
  53, -46, -61, -42, 48, 56, 28, -59, 27, 36, -33, 4, -39, 21, -66, -6, -28, -15, -60, -40, 44, 14, 27, -13, 57, -36, 66, 38, 42, -40, 61, -7, -16, 52, 33, 51, 61, 69, 52, -4, -8, 10, 66, -18, 37, -21, -25, -15, 9, -59, -5, -56, 51, -2, 64, -62, -60, 62, 53, -21, -60, 20, 3, 17, -6, 20, -72, -4, -55, -50, 73, 70, 48, -2, -30, -37, -25, 16, -63, -64, 47, 29, -32, -71, -69, -16, -41, 68, -57, 19, 45, 33, -45, 23, 19, 25, -33, -39, -12, -71, -46, 70, 60, -25, -49, -9, -28, -68, 5, 51, -53, -62, -3, -63, 13, -43, -62, -49, -30, 19, -6, 55, -19, -20, 35, -23, 30, -56, 48, -7, 48, 20, -29, 24, -35, 31, -26, -83, -62, 25, -27, -18, -46, 61, 31, -34, 41, 83, -56, -5, 78, -8, -20, 74, -60, -11, -40, -25, -6, 23, 17, -66, 26, 44, 51, 2, -65, -41, 56, 65, -33, -2, 51, -2, -12, -1, -32, -12, 7, 61, -42, 52, -58, -2, -12, 71, -16, -56, 57, 65, -12, 15, 43, 6, -35, -20, -58, -35, 62, 58, 6, -66, 1, -25, -29, 58, 78, 
  4, -17, 41, 27, -72, 55, -64, 63, -7, 56, -16, -44, 46, -57, 40, 20, -63, -28, -10, -42, -58, -25, 2, -59, 25, -63, -62, 52, 18, 1, 58, 24, -26, 23, -47, 16, -35, -22, -63, 4, -12, 6, -40, 66, -67, 15, 32, 3, -37, -18, 72, 7, -13, 29, 47, -61, 10, -65, 2, -32, 34, 8, -72, 40, -45, -45, -84, 19, -35, 16, 2, -49, 66, 60, 52, -18, 10, -77, -41, 59, -61, 66, -60, 16, -76, 7, 55, 28, 62, -19, -46, 5, 6, -3, 58, -27, -48, 58, -17, 19, 39, -47, -17, 56, 66, -45, -14, -5, -36, -47, -53, 31, 66, 6, 47, 46, -42, -60, 71, 45, -34, -33, -32, -36, -53, 43, 64, 17, 47, -6, 8, 45, 38, 56, 61, -4, 26, -10, 3, -6, -1, -36, -3, -11, 41, -28, 34, -19, 18, 33, -49, -74, -7, -34, -64, 58, -72, -31, -53, 40, -68, -22, 19, 45, 40, -20, 21, 20, 41, 57, 45, 30, 35, 63, 52, 15, 2, -43, -7, 59, 37, 53, -22, 39, -29, 25, -46, 51, -54, -17, -21, 68, -72, 23, -75, -9, -44, -47, 6, -58, -31, 8, -39, -70, -76, 0, -2, 
  43, 45, 71, -58, 79, -23, 9, 19, 4, 45, 53, 65, 17, 15, -27, 64, 70, -27, 21, 66, -36, 24, 67, 13, 58, -1, -68, 46, 45, 58, 49, -32, -63, -39, 27, -29, 1, 68, 51, -32, 12, 26, -47, -55, -32, -19, 16, -37, -53, -65, -8, -24, 49, -6, 4, 4, 68, 67, 71, -29, -48, 36, -9, 54, -13, -32, 21, -44, 34, -45, 81, 32, 0, 25, -46, 58, 56, -40, -3, 44, 78, 4, -16, 72, -69, 59, -12, 11, 41, 19, -26, 2, 59, -52, 54, 3, 58, -59, -17, 53, -59, -32, -4, 9, 44, -59, 8, -52, 8, 19, -59, -47, -57, -31, 48, -35, -49, -36, -40, 52, -38, -66, 66, 50, -51, -52, 22, 35, -14, -35, 55, 29, 52, -43, -22, 32, -30, 70, -20, 60, -29, -55, -18, 74, 24, 55, -38, -21, -58, 7, 39, 11, 66, -6, -36, 47, -44, 24, 14, 50, 28, -1, 26, 42, 41, 29, -69, -10, -47, 74, 74, -63, 32, -7, 47, -54, 37, 14, -36, 52, -58, 44, -2, 14, 60, 5, 68, 33, 17, 58, 21, 18, 14, 26, -41, 54, -44, -29, 40, 48, -48, 55, -41, 30, 3, 38, 31, 
  3, 64, -53, 32, -76, 7, -35, 25, 31, 38, 5, 21, 14, -76, -47, -34, -30, 44, -53, 58, -34, 40, 60, 48, 33, 1, 50, 67, 43, -56, 67, 50, -51, 38, -55, 3, 21, 25, -24, 19, -33, -67, 56, -4, -55, 30, -12, -1, 11, -17, 34, 55, -67, -57, 2, 44, 64, 14, 21, 65, -9, -66, 35, 72, -35, 4, -47, -22, 39, -34, 26, -9, -58, 37, 49, 7, -49, 36, 41, -25, 59, 8, -46, -20, -4, -41, -20, 48, -51, -46, -59, -13, -23, -56, -10, -45, -55, -47, 35, 9, 54, -36, 27, 48, 56, -52, -74, -67, -21, 9, -12, 9, -19, -61, 31, 69, -73, -24, -64, 43, 35, -50, 16, -12, -42, 53, 55, -72, -7, -6, 18, 41, 57, -23, -48, 20, -79, -60, 21, 64, 44, -8, 45, 24, -7, -39, -32, 10, -30, -22, -80, 27, -65, -66, 22, -54, -37, -68, -11, 45, 4, 32, -55, -74, -15, -40, -12, -16, -12, -3, 66, -46, 68, 40, -49, 35, 0, -58, 71, -67, -32, 15, -16, -29, -57, 15, -26, -28, -24, -43, 46, 7, -59, -20, -10, 34, 57, 56, -7, -2, -21, 71, -52, -47, -37, 32, 30, 
};
const TfArray<2, int> tensor_dimension1 = { 2, { 96,207 } };
const TfArray<1, float> quant1_scale = { 1, { 0.0019466974772512913, } };
const TfArray<1, int> quant1_zero = { 1, { 0 } };
const TfLiteAffineQuantization quant1 = { (TfLiteFloatArray*)&quant1_scale, (TfLiteIntArray*)&quant1_zero, 0 };
const ALIGN(16) int32_t tensor_data2[96] = { 519, 397, -139, -1, -25, 473, 608, 289, 463, 488, -1, 259, -168, -1, 407, 564, 414, -10, 499, 547, 430, 655, 4, 409, -75, 417, -121, -106, 560, 628, 666, -83, 561, 722, 557, 438, -47, -152, 11, 0, -96, -87, 3, 498, -101, -98, -89, -88, 531, -26, 536, -175, -3, 77, 406, -59, -86, 373, -40, 459, -165, -11, 516, -56, -46, 553, -32, -102, 437, 558, -116, -26, 428, 438, 415, 31, 436, 500, 436, -86, 479, -31, 560, 306, -33, -55, -66, -60, -117, -25, -37, 351, -11, 473, -46, 461, };
const TfArray<1, int> tensor_dimension2 = { 1, { 96 } };
const TfArray<1, float> quant2_scale = { 1, { 0.0002439920644974336, } };
const TfArray<1, int> quant2_zero = { 1, { 0 } };
const TfLiteAffineQuantization quant2 = { (TfLiteFloatArray*)&quant2_scale, (TfLiteIntArray*)&quant2_zero, 0 };
const ALIGN(16) int8_t tensor_data3[56*96] = { 
  -36, -15, -31, -50, 27, -50, 57, -13, 3, 49, 23, -22, -56, -6, 3, -63, 23, -53, -47, -52, 17, -9, -8, 43, -5, 67, -57, 48, -31, -32, -9, 49, -17, 20, -1, -23, 21, 5, 11, 61, -53, -12, 21, 46, -55, -13, 15, 24, -52, 39, 54, 27, 7, 57, 8, 67, -41, 53, -28, 77, 40, 23, -27, -29, -11, -67, 55, -41, -3, -66, 5, -61, -42, -11, -1, -30, 45, -23, -14, 20, 13, 48, 39, -48, -16, 53, -19, 24, 50, 27, -39, -30, 86, -8, 9, -40, 
  -38, -10, 28, 73, -4, -4, -20, -39, 39, -32, 10, 28, 69, 36, -1, -19, -19, -40, 20, -68, 61, 31, 60, -14, 56, -13, -24, -57, -14, -55, 19, 51, 3, 38, -6, 24, -35, -16, -66, 72, 18, 11, 55, 39, 22, 10, -47, -42, -14, -12, 53, -15, -24, 1, 17, 21, 69, -13, 68, 4, -19, 27, -33, -5, 78, -37, 46, -5, 39, 1, -43, 22, -38, -38, -35, -26, 6, -31, 5, 43, 63, -56, 68, -23, 65, -56, 25, 52, -23, -48, 4, 51, 0, 67, 68, 19, 
  -51, 4, -63, 10, -43, 16, 26, 32, 36, 19, -20, -64, 48, -55, 40, 22, 35, 0, -28, 61, 23, -7, 37, 69, -53, -65, 56, -22, -9, 62, -27, -27, 54, 28, 65, -22, 9, -42, -3, -21, -54, -57, -63, -52, -10, -56, -47, -27, 50, 29, 63, -31, 37, 4, 17, 51, -21, 7, -16, 40, 62, 59, 63, 66, 17, 68, 49, -51, -17, 19, 46, 34, 14, 35, 57, -14, 54, 28, 49, -37, -10, 31, -35, 22, -24, 55, -16, 9, -44, -31, -26, 30, -41, -49, -32, 57, 
  -44, 35, 65, 45, 49, 18, 44, -13, 54, 22, 19, 24, -29, 22, -61, 44, -58, 2, -16, 36, 55, 90, -44, 30, 70, -6, -27, 72, 43, 30, 81, -65, -2, 20, -15, -37, -62, -19, -63, -25, 68, 4, 22, -18, -61, 8, 38, 56, -49, -32, -22, 6, 66, 2, -57, -31, 54, -11, -39, 42, 1, 57, -30, 64, -3, -31, 67, -56, -13, 16, 65, 28, -2, 30, 12, 66, -48, 5, -64, -39, 9, -43, 12, 29, -63, 40, -41, 53, -55, -54, -23, 12, 29, -45, -64, 67, 
  14, -17, 41, 61, 23, 30, 63, -58, -44, 13, -53, -55, -25, -44, -20, -3, 17, 7, 47, -18, -24, 18, -9, 24, 42, -55, 36, 51, 51, 0, 51, 71, -4, 53, -37, -47, -12, 67, 54, -43, -38, 50, 39, 54, -60, -19, -58, -46, 63, 25, -41, 61, -1, -4, -30, 20, 24, -9, 48, -65, -63, 55, 15, 18, -40, 49, 36, -53, 26, 88, -57, 65, -11, 49, 50, -31, 30, 43, 46, 9, 62, 37, -4, 23, 56, -29, -43, -3, 38, 32, 44, -7, 45, -17, -66, -10, 
  34, 49, 63, 15, -46, -69, 9, 37, -64, 26, -31, -26, 6, -7, -65, -21, -8, -24, -7, 45, 46, -74, -71, -51, -23, 13, 68, 17, 14, 36, -44, -19, -23, -7, 2, 36, -64, 25, -12, 3, -59, -8, 52, 31, -7, 55, -53, 50, -52, -56, 0, 71, 6, -51, -56, 61, 58, 2, 54, 59, -55, -45, 31, 26, -8, -1, 16, 23, 31, 20, 52, -11, 35, -22, 50, -40, 43, -36, -24, -52, 33, 62, 15, -6, 50, 31, 8, -61, -48, -63, 19, -30, -11, 34, -59, 52, 
  51, 25, 46, -58, -13, 53, -40, -53, -66, 5, 44, 16, -3, -64, -1, -14, 30, -19, 23, 59, 12, 23, -33, 47, 35, 36, -45, -59, 17, -52, 9, -44, -45, -6, -44, -39, 38, 39, -35, 9, -58, -35, 58, -24, 39, -60, -48, -36, -38, -52, 1, 23, -26, 12, -12, 5, 8, -11, -7, -50, 45, -64, -41, -42, -2, -45, -29, 44, -26, 42, -61, 57, 25, -40, -67, 29, 62, -4, 68, 0, -19, 46, -42, -43, -13, 17, 19, 10, -57, 55, 60, -58, -56, 0, 1, -40, 
  -41, 48, 18, -5, 52, -37, 24, -2, 57, -27, 32, 20, -29, 67, 61, 20, -49, -22, -19, -36, -18, -127, -75, -60, 38, 23, 37, -30, -66, -80, -11, 24, -6, -10, 56, 0, 29, 63, -51, -55, 43, -37, -35, 29, -9, -33, 31, 35, 59, -25, 53, -42, -16, -26, -20, 68, 57, 73, -75, 44, 43, -32, -61, -50, -37, 92, 10, 39, 70, 55, -7, 50, 64, 24, -27, -21, 47, 18, 30, -26, 48, -5, -49, 42, -61, -68, -55, 62, -4, -48, 46, -27, 20, 31, 26, -55, 
  -48, -23, 57, -15, 45, 55, -38, -28, 36, 0, -19, -67, -23, 22, -1, -50, -26, 0, -52, 12, -36, 10, 1, -42, 11, 27, -8, 6, -50, 30, 22, -31, -23, 70, -6, 24, 33, 21, 62, 53, -36, 60, -28, -6, -31, -10, 20, 44, -47, -28, 69, -5, 44, 44, 44, -18, 53, -63, 15, 6, -4, 10, -47, -18, 9, 31, 42, 69, 33, 68, 1, -25, -22, -35, 11, 60, -1, -36, 0, 61, -46, -25, 68, 42, -8, 39, 6, -56, 50, 17, -14, 55, -40, -39, 61, -41, 
  -15, 5, -18, 8, 66, 45, 0, -71, 52, -34, 10, -40, -17, 54, 13, 14, -40, 10, 63, 40, 3, 81, 32, 63, 52, 18, 54, -12, 74, 33, 19, 44, -27, -32, 54, -2, 7, 48, 5, -7, -34, 17, -68, 50, -23, 21, 21, -46, -13, 43, 27, -31, -59, 28, -28, 10, 49, 0, -63, -27, 29, -1, 80, 39, 77, 75, -58, -35, 22, 38, 28, 60, -37, -12, -27, 32, 47, -23, 59, -29, 73, 30, 17, 27, 20, -25, 22, 29, 1, -4, -12, -41, -9, -44, 52, 13, 
  -6, 7, 21, 64, 70, -24, -22, 45, -44, 46, 7, 5, 38, -45, -34, 57, 37, 27, -23, -33, -47, -10, -11, 30, 25, 27, 5, 9, 16, -33, 53, 54, 61, 2, -16, 49, 44, -22, 66, 17, -33, 28, -8, -54, 57, 48, -19, 32, 38, -8, -6, -17, 33, -45, -58, 53, -56, 47, 23, -17, 70, 10, -52, 42, 26, 15, 21, 66, -50, 43, -65, -34, -71, 65, -10, 61, 56, 47, -72, -30, 41, 25, 15, -40, 73, -33, 0, -15, 45, -30, 13, -36, 20, -20, 63, -27, 
  9, -21, 0, 59, 7, 32, -54, -59, 8, 8, 18, 6, -24, -5, -71, 49, -47, -36, -26, -65, 49, -60, -31, -55, -6, -37, 67, 60, -56, 25, -63, -10, 5, 50, -41, -48, -66, -43, -44, 5, 47, 53, -34, 27, -15, 29, -20, -27, -57, 12, -66, -39, 16, 33, 23, 6, 33, 4, -59, 63, -11, -7, -31, 50, 23, -29, 40, -42, -48, 61, 59, 6, 8, 36, -26, -4, -59, -39, -45, -53, 34, -40, 8, 17, -65, 67, -27, -19, 61, -35, 26, 50, 24, -60, -38, 55, 
  76, 41, -60, -34, 23, 89, 88, 19, 55, -19, -88, -11, -80, -30, -16, 15, 25, -56, -3, 20, -5, 17, 21, 33, -43, -40, 14, 43, 53, 23, 106, 13, 95, 3, 8, 81, -49, -70, 17, 5, 21, -37, -16, 35, -34, 38, 25, -65, 91, 14, 2, -51, -51, 52, 90, 22, 68, 15, 62, 9, -26, 11, 93, -50, 1, 104, -79, 3, -32, 4, -14, -42, -10, 85, 58, 41, 67, 26, -19, 23, 60, -1, 98, 24, -75, 51, -31, -14, 52, -14, -45, -10, 7, -25, -24, 62, 
  -1, 54, -46, 32, -56, 63, 53, 39, 24, 5, -64, -38, 18, 66, 31, 81, 36, 46, -35, 64, 2, 66, 13, 52, 60, 14, 1, -7, 49, -1, 55, -34, 74, -57, 27, 19, -42, -6, -2, -1, 6, -52, -21, 4, -48, 25, -30, -54, 67, -42, 76, 1, -33, -22, -53, -57, -69, -3, 68, -17, -51, 13, 13, 71, 76, 18, 16, 52, -52, 113, -12, 23, 91, 44, 70, 29, -26, 29, 83, 43, 15, -10, -61, 68, 34, 47, 61, -3, -34, 59, 75, 46, 5, -4, -28, 78, 
  12, 16, -60, -58, -4, 12, 53, 8, 27, 81, -16, -51, -60, 14, 32, 65, 53, -76, 73, 31, 15, 124, -53, -28, 46, -4, 11, -9, 19, 71, 71, 25, -11, -29, 22, 18, 50, -60, 45, 12, -62, -56, -6, 10, 25, -64, -58, -10, 46, -30, -13, -9, -42, 60, 43, 18, -7, -20, -23, -19, -14, 28, -42, -33, -74, 65, 35, -27, 9, 64, -20, 22, 53, 69, 39, 13, 2, 57, -24, -33, -29, -22, 74, -30, -49, -6, 21, 19, 41, -29, 54, 13, 49, 0, 39, -3, 
  57, -26, -18, 14, 56, -1, 48, 4, -32, -3, -42, -16, 9, 3, -10, -18, 74, -53, -20, -50, 59, 116, -11, -6, 20, 46, -25, 5, 65, -12, 81, 19, 87, 34, 1, 78, -11, 22, -60, -12, -63, 51, 28, 58, -18, -67, 4, -54, 76, -63, -17, -51, 3, -9, 39, 20, 55, 60, -45, 13, 58, 13, -8, -47, 38, 74, 29, -50, -8, 17, -13, 31, 92, -16, 36, -27, 62, -36, 56, 21, 45, 57, 2, -22, -34, 8, -11, -45, -17, -57, -23, -19, -64, 36, -66, 59, 
  -7, -19, 59, 64, -36, 82, 94, -57, 2, 78, -26, 55, 28, 35, -46, -26, 31, -42, -48, 21, 73, 86, -35, -28, 62, 84, -48, -34, 96, 57, 2, 2, 101, 115, 61, -12, -57, -40, 62, -76, 4, -40, -59, 77, -61, 46, -13, -45, 62, 8, -47, -41, 41, -27, -8, -37, 49, 6, -67, -6, 30, -66, 39, 8, -60, 124, -46, -50, 52, 111, -2, -42, -6, 110, 1, -18, 68, 28, 38, 22, 3, 31, 43, 17, -37, 37, -9, -46, -39, 49, -37, -51, -30, 59, -61, 27, 
  69, 57, -51, -60, -8, 88, 1, 35, 31, 20, 4, 8, -11, -78, 58, 77, 60, 51, -19, -44, 1, 100, 51, 77, -29, 54, -52, 3, -18, 52, 30, -31, 13, 14, 21, -29, -30, -66, 9, 26, 19, -28, -19, 10, 11, -57, -9, -37, 3, -54, 39, 2, 40, -5, 67, 14, -68, 53, -52, -7, -63, 21, 4, 28, -34, 114, -58, 6, -25, 84, -42, 24, 71, 84, 42, -29, -13, 21, -48, 43, 52, -28, 67, -8, -43, -33, -15, -19, -25, 40, -22, 59, 28, 79, 21, 62, 
  46, -1, 56, 26, 46, -8, 31, 54, 61, 17, 24, 3, 60, -5, 59, 11, 12, -57, 15, -51, 48, -16, -67, 0, 16, -25, 36, 59, 3, -45, -67, 70, -37, -50, 67, 21, 68, 47, -22, -11, 35, -28, 38, 3, -51, -49, 43, -37, -10, -63, -1, 66, 29, 32, -63, -8, 70, -53, 42, -34, 33, -22, 8, 5, -18, 64, -40, 53, 21, 55, 3, -63, 10, 46, -4, -50, -20, -16, -28, 14, -63, 46, 20, 21, 15, -60, -31, -9, -1, -3, -22, 4, -58, -40, 47, -17, 
